{"num_of_examples": 2320, "train_loss": 0.008758351672440767, "_timestamp": 1716166257.6276476, "_runtime": 24.08042073249817, "_step": 30, "gradients/output.bias": {"_type": "histogram", "values": [1.0], "bins": [-0.5628526210784912, -0.5628526210784912]}, "gradients/output.weight": {"_type": "histogram", "values": [1.0, 0.0, 0.0, 0.0, 0.0, 0.0, 0.0, 0.0, 0.0, 0.0, 0.0, 0.0, 0.0, 0.0, 1.0, 0.0, 0.0, 1.0, 0.0, 1.0, 0.0, 1.0, 0.0, 1.0, 2.0, 0.0, 2.0, 1.0, 2.0, 1.0, 0.0, 1.0, 0.0, 1.0, 0.0, 2.0, 2.0, 1.0, 2.0, 6.0, 1.0, 3.0, 1.0, 2.0, 2.0, 7.0, 3.0, 6.0, 4.0, 2.0, 5.0, 4.0, 2.0, 6.0, 0.0, 4.0, 3.0, 1.0, 6.0, 6.0, 2.0, 9.0, 7.0, 141.0], "bins": [-0.36736544966697693, -0.36162298917770386, -0.3558804988861084, -0.3501380383968353, -0.34439554810523987, -0.3386530876159668, -0.3329106271266937, -0.32716813683509827, -0.3214256763458252, -0.31568318605422974, -0.30994072556495667, -0.3041982650756836, -0.29845577478408813, -0.29271331429481506, -0.2869708240032196, -0.28122836351394653, -0.2754858732223511, -0.269743412733078, -0.26400095224380493, -0.2582584619522095, -0.2525160014629364, -0.24677352607250214, -0.24103105068206787, -0.2352885752916336, -0.22954609990119934, -0.22380363941192627, -0.218061164021492, -0.21231868863105774, -0.20657621324062347, -0.2008337378501892, -0.19509127736091614, -0.18934880197048187, -0.1836063116788864, -0.17786383628845215, -0.17212136089801788, -0.1663789004087448, -0.16063642501831055, -0.15489394962787628, -0.14915147423744202, -0.14340899884700775, -0.13766653835773468, -0.13192406296730042, -0.12618158757686615, -0.12043911218643188, -0.11469664424657822, -0.10895416885614395, -0.10321169346570969, -0.09746922552585602, -0.09172675013542175, -0.08598427474498749, -0.08024180680513382, -0.07449933141469955, -0.06875686347484589, -0.06301438808441162, -0.057271916419267654, -0.05152944102883339, -0.04578696936368942, -0.040044497698545456, -0.03430202603340149, -0.028559552505612373, -0.022817078977823257, -0.01707460731267929, -0.011332133784890175, -0.005589661654084921, 0.00015281097148545086]}, "gradients/linearlayers.4.0.bias": {"_type": "histogram", "values": [2.0, 3.0, 1.0, 2.0, 0.0, 2.0, 1.0, 0.0, 5.0, 2.0, 3.0, 1.0, 1.0, 3.0, 4.0, 4.0, 1.0, 4.0, 6.0, 2.0, 1.0, 1.0, 5.0, 5.0, 2.0, 3.0, 1.0, 0.0, 5.0, 3.0, 8.0, 6.0, 113.0, 10.0, 9.0, 3.0, 4.0, 2.0, 1.0, 5.0, 2.0, 4.0, 0.0, 2.0, 1.0, 1.0, 0.0, 1.0, 0.0, 0.0, 1.0, 2.0, 3.0, 0.0, 1.0, 0.0, 0.0, 1.0, 0.0, 1.0, 0.0, 0.0, 1.0, 1.0], "bins": [-0.035684436559677124, -0.03459475189447403, -0.033505070954561234, -0.03241538628935814, -0.031325701624155045, -0.0302360188215971, -0.029146336019039154, -0.02805665321648121, -0.026966970413923264, -0.02587728574872017, -0.024787602946162224, -0.02369792014360428, -0.022608235478401184, -0.02151855267584324, -0.020428869873285294, -0.0193391852080822, -0.018249502405524254, -0.01715981960296631, -0.016070134937763214, -0.014980452135205269, -0.013890769332647324, -0.012801085598766804, -0.011711401864886284, -0.010621719062328339, -0.009532035328447819, -0.008442351594567299, -0.007352668792009354, -0.006262985058128834, -0.005173301789909601, -0.004083618521690369, -0.0029939350206404924, -0.001904251636005938, -0.0008145682513713837, 0.0002751151332631707, 0.001364798517897725, 0.0024544820189476013, 0.003544165287166834, 0.0046338485553860664, 0.005723532289266586, 0.006813215557485819, 0.007902898825705051, 0.008992582559585571, 0.010082265362143517, 0.011171949096024036, 0.012261632829904556, 0.013351315632462502, 0.014440999366343021, 0.015530682168900967, 0.016620365902781487, 0.017710048705339432, 0.018799733370542526, 0.01988941617310047, 0.020979098975658417, 0.02206878364086151, 0.023158466443419456, 0.0242481492459774, 0.025337833911180496, 0.02642751671373844, 0.027517199516296387, 0.028606882318854332, 0.029696566984057426, 0.03078624978661537, 0.031875934451818466, 0.03296561539173126, 0.03405530005693436]}, "gradients/linearlayers.4.0.weight": {"_type": "histogram", "values": [2.0, 3.0, 1.0, 2.0, 0.0, 2.0, 4.0, 7.0, 15.0, 9.0, 9.0, 20.0, 19.0, 27.0, 28.0, 35.0, 46.0, 58.0, 72.0, 94.0, 135.0, 178.0, 229.0, 281.0, 358.0, 456.0, 590.0, 718.0, 896.0, 1126.0, 1359.0, 2082.0, 50474.0, 2975.0, 993.0, 641.0, 407.0, 277.0, 209.0, 176.0, 116.0, 105.0, 61.0, 55.0, 39.0, 34.0, 23.0, 24.0, 13.0, 9.0, 10.0, 4.0, 10.0, 5.0, 4.0, 1.0, 3.0, 4.0, 0.0, 1.0, 0.0, 0.0, 1.0, 1.0], "bins": [-0.026747049763798714, -0.025930283591151237, -0.02511351928114891, -0.024296753108501434, -0.023479986935853958, -0.02266322262585163, -0.021846456453204155, -0.021029692143201828, -0.020212925970554352, -0.019396159797906876, -0.01857939548790455, -0.017762629315257072, -0.016945865005254745, -0.01612909883260727, -0.015312332659959793, -0.014495567418634892, -0.01367880217730999, -0.012862036935985088, -0.012045271694660187, -0.01122850552201271, -0.010411740280687809, -0.009594975039362907, -0.008778208866715431, -0.00796144362539053, -0.007144678384065628, -0.0063279131427407265, -0.005511147435754538, -0.004694381728768349, -0.003877616487443447, -0.003060851013287902, -0.0022440855391323566, -0.0014273200649768114, -0.0006105545908212662, 0.00020621088333427906, 0.0010229763574898243, 0.0018397418316453695, 0.0026565073058009148, 0.00347327277995646, 0.004290038254112005, 0.005106803961098194, 0.005923569202423096, 0.006740334443747997, 0.007557100150734186, 0.008373865857720375, 0.009190631099045277, 0.010007396340370178, 0.010824162513017654, 0.011640927754342556, 0.012457692995667458, 0.01327445823699236, 0.01409122347831726, 0.014907989650964737, 0.015724755823612213, 0.01654152013361454, 0.017358286306262016, 0.018175050616264343, 0.01899181678891182, 0.019808582961559296, 0.020625347271561623, 0.0214421134442091, 0.022258877754211426, 0.023075643926858902, 0.023892410099506378, 0.024709174409508705, 0.02552594058215618]}, "gradients/linearlayers.3.0.bias": {"_type": "histogram", "values": [2.0, 0.0, 0.0, 0.0, 0.0, 1.0, 0.0, 1.0, 1.0, 0.0, 1.0, 1.0, 0.0, 2.0, 0.0, 1.0, 1.0, 4.0, 6.0, 6.0, 3.0, 2.0, 3.0, 2.0, 4.0, 5.0, 1.0, 1.0, 1.0, 3.0, 3.0, 6.0, 3.0, 2.0, 1.0, 7.0, 6.0, 10.0, 8.0, 95.0, 8.0, 10.0, 8.0, 4.0, 5.0, 5.0, 4.0, 3.0, 1.0, 2.0, 2.0, 1.0, 2.0, 2.0, 2.0, 1.0, 1.0, 1.0, 0.0, 0.0, 0.0, 0.0, 0.0, 1.0], "bins": [-0.032633282244205475, -0.031797733157873154, -0.030962184071540833, -0.030126633122563362, -0.02929108403623104, -0.02845553494989872, -0.02761998400092125, -0.026784434914588928, -0.025948885828256607, -0.025113336741924286, -0.024277787655591965, -0.023442236706614494, -0.022606687620282173, -0.021771138533949852, -0.02093558758497238, -0.02010003849864006, -0.01926448941230774, -0.018428940325975418, -0.017593391239643097, -0.016757840290665627, -0.015922291204333305, -0.015086742118000984, -0.014251192100346088, -0.013415642082691193, -0.012580092996358871, -0.01174454391002655, -0.010908993892371655, -0.010073443874716759, -0.009237894788384438, -0.008402345702052116, -0.007566795684397221, -0.006731246132403612, -0.005895694717764854, -0.005060145165771246, -0.0042245956137776375, -0.003389046061784029, -0.0025534965097904205, -0.001717946957796812, -0.0008823974058032036, -4.684785380959511e-05, 0.0007887016981840134, 0.0016242512501776218, 0.0024598008021712303, 0.003295350354164839, 0.004130899906158447, 0.004966449458152056, 0.005801999010145664, 0.006637548562139273, 0.007473098114132881, 0.008308647200465202, 0.009144197218120098, 0.009979747235774994, 0.010815296322107315, 0.011650845408439636, 0.012486395426094532, 0.013321945443749428, 0.014157494530081749, 0.01499304361641407, 0.01582859456539154, 0.01666414365172386, 0.017499692738056183, 0.018335241824388504, 0.019170790910720825, 0.020006341859698296, 0.020841890946030617]}, "gradients/linearlayers.3.0.weight": {"_type": "histogram", "values": [3.0, 1.0, 0.0, 0.0, 2.0, 4.0, 0.0, 6.0, 1.0, 5.0, 4.0, 4.0, 3.0, 9.0, 7.0, 17.0, 19.0, 32.0, 27.0, 38.0, 37.0, 70.0, 73.0, 76.0, 92.0, 107.0, 177.0, 291.0, 269.0, 265.0, 328.0, 465.0, 509.0, 628.0, 775.0, 859.0, 1286.0, 1882.0, 6009.0, 46301.0, 1939.0, 980.0, 599.0, 401.0, 259.0, 196.0, 125.0, 127.0, 67.0, 52.0, 25.0, 17.0, 25.0, 20.0, 8.0, 5.0, 1.0, 2.0, 1.0, 2.0, 2.0, 0.0, 0.0, 2.0], "bins": [-0.02470065839588642, -0.02406802587211132, -0.02343539148569107, -0.02280275896191597, -0.02217012457549572, -0.02153749205172062, -0.02090485952794552, -0.02027222514152527, -0.019639592617750168, -0.019006958231329918, -0.018374325707554817, -0.017741693183779716, -0.017109058797359467, -0.016476426273584366, -0.015843791887164116, -0.015211159363389015, -0.01457852590829134, -0.013945892453193665, -0.01331325899809599, -0.012680626474320889, -0.012047993019223213, -0.011415359564125538, -0.010782726109027863, -0.010150092653930187, -0.009517459198832512, -0.008884826675057411, -0.008252193219959736, -0.0076195597648620605, -0.006986926309764385, -0.006354293320327997, -0.005721659865230322, -0.005089026875793934, -0.0044563934206962585, -0.003823760198429227, -0.003191126976162195, -0.00255849352106452, -0.0019258602987974882, -0.0012932270765304565, -0.000660593737848103, -2.7960457373410463e-05, 0.0006046728231012821, 0.0012373060453683138, 0.0018699393840506673, 0.0025025727227330208, 0.0031352059450000525, 0.003767839167267084, 0.0044004726223647594, 0.0050331056118011475, 0.005665739066898823, 0.006298372521996498, 0.006931005511432886, 0.0075636389665305614, 0.00819627195596695, 0.008828905411064625, 0.0094615388661623, 0.010094172321259975, 0.01072680577635765, 0.011359438300132751, 0.011992071755230427, 0.012624705210328102, 0.013257338665425777, 0.013889972120523453, 0.014522604644298553, 0.015155238099396229, 0.015787871554493904]}, "gradients/linearlayers.2.0.bias": {"_type": "histogram", "values": [1.0, 0.0, 0.0, 0.0, 0.0, 1.0, 0.0, 1.0, 0.0, 2.0, 0.0, 1.0, 2.0, 3.0, 1.0, 3.0, 4.0, 1.0, 0.0, 1.0, 3.0, 1.0, 3.0, 3.0, 3.0, 5.0, 6.0, 4.0, 4.0, 0.0, 9.0, 5.0, 6.0, 3.0, 4.0, 5.0, 5.0, 5.0, 16.0, 99.0, 9.0, 8.0, 6.0, 2.0, 2.0, 3.0, 2.0, 2.0, 2.0, 1.0, 3.0, 1.0, 1.0, 0.0, 1.0, 0.0, 0.0, 0.0, 1.0, 0.0, 1.0, 0.0, 0.0, 1.0], "bins": [-0.02449740469455719, -0.023871339857578278, -0.023245275020599365, -0.022619212046265602, -0.02199314720928669, -0.021367082372307777, -0.020741017535328865, -0.020114954560995102, -0.01948888972401619, -0.018862824887037277, -0.018236760050058365, -0.017610695213079453, -0.01698463223874569, -0.016358567401766777, -0.015732502564787865, -0.015106438659131527, -0.014480373822152615, -0.013854308985173702, -0.013228245079517365, -0.012602180242538452, -0.011976116336882114, -0.011350051499903202, -0.010723987594246864, -0.010097922757267952, -0.00947185792028904, -0.008845794014632702, -0.00821972917765379, -0.007593665271997452, -0.006967600435018539, -0.006341536063700914, -0.005715471692383289, -0.005089407321065664, -0.004463343881070614, -0.003837279509752989, -0.0032112151384353638, -0.002585150534287095, -0.00195908616296947, -0.001333021791651845, -0.0007069573039188981, -8.089287439361215e-05, 0.0005451715551316738, 0.0011712359264492989, 0.0017973004141822457, 0.0024233649019151926, 0.0030494292732328176, 0.0036754936445504427, 0.004301558248698711, 0.0049276226200163364, 0.0055536869913339615, 0.0061797513626515865, 0.006805815733969212, 0.007431880105286837, 0.008057944476604462, 0.008684009313583374, 0.009310073219239712, 0.009936138056218624, 0.010562201961874962, 0.011188266798853874, 0.011814331635832787, 0.012440395541489124, 0.013066460378468037, 0.013692524284124374, 0.014318589121103287, 0.014944653026759624, 0.015570717863738537]}, "gradients/linearlayers.2.0.weight": {"_type": "histogram", "values": [1.0, 3.0, 0.0, 1.0, 1.0, 1.0, 4.0, 1.0, 8.0, 3.0, 11.0, 8.0, 12.0, 18.0, 24.0, 31.0, 26.0, 39.0, 45.0, 47.0, 67.0, 82.0, 91.0, 109.0, 102.0, 147.0, 169.0, 246.0, 264.0, 317.0, 406.0, 447.0, 578.0, 770.0, 947.0, 1166.0, 1608.0, 2441.0, 47268.0, 4834.0, 1243.0, 595.0, 372.0, 274.0, 178.0, 119.0, 101.0, 91.0, 55.0, 30.0, 35.0, 15.0, 16.0, 13.0, 16.0, 8.0, 8.0, 8.0, 5.0, 4.0, 1.0, 2.0, 2.0, 2.0], "bins": [-0.021219493821263313, -0.02067444659769535, -0.020129399374127388, -0.019584352150559425, -0.019039304926991463, -0.0184942577034235, -0.017949208617210388, -0.017404161393642426, -0.016859114170074463, -0.0163140669465065, -0.015769019722938538, -0.015223972499370575, -0.014678925275802612, -0.01413387805223465, -0.013588829897344112, -0.01304378267377615, -0.012498735450208187, -0.011953688226640224, -0.011408641003072262, -0.010863592848181725, -0.010318545624613762, -0.0097734984010458, -0.009228451177477837, -0.008683403953909874, -0.008138356730341911, -0.007593309041112661, -0.007048261351883411, -0.006503214128315449, -0.005958166904747486, -0.005413119215518236, -0.0048680719919502735, -0.0043230243027210236, -0.003777977079153061, -0.0032329296227544546, -0.0026878821663558483, -0.0021428349427878857, -0.0015977874863892794, -0.001052740029990673, -0.0005076926900073886, 3.7354708183556795e-05, 0.0005824021063745022, 0.0011274495627731085, 0.001672496902756393, 0.0022175442427396774, 0.0027625916991382837, 0.00330763915553689, 0.0038526863791048527, 0.004397734068334103, 0.004942781291902065, 0.005487828515470028, 0.006032876204699278, 0.0065779234282672405, 0.0071229711174964905, 0.007668018341064453, 0.008213065564632416, 0.008758112788200378, 0.009303160011768341, 0.009848208166658878, 0.010393255390226841, 0.010938302613794804, 0.011483349837362766, 0.012028397060930729, 0.012573445215821266, 0.013118492439389229, 0.013663539662957191]}, "gradients/linearlayers.1.0.bias": {"_type": "histogram", "values": [1.0, 0.0, 0.0, 0.0, 0.0, 0.0, 0.0, 0.0, 0.0, 1.0, 0.0, 1.0, 0.0, 2.0, 0.0, 0.0, 2.0, 0.0, 0.0, 0.0, 2.0, 3.0, 1.0, 2.0, 2.0, 3.0, 3.0, 2.0, 3.0, 3.0, 1.0, 3.0, 7.0, 4.0, 3.0, 7.0, 6.0, 3.0, 4.0, 5.0, 7.0, 8.0, 6.0, 7.0, 6.0, 95.0, 12.0, 5.0, 11.0, 5.0, 2.0, 3.0, 3.0, 4.0, 0.0, 1.0, 3.0, 0.0, 0.0, 1.0, 1.0, 0.0, 1.0, 1.0], "bins": [-0.021307189017534256, -0.02083716355264187, -0.02036713808774948, -0.019897112622857094, -0.019427087157964706, -0.01895706169307232, -0.01848703622817993, -0.018017010763287544, -0.017546985298395157, -0.01707695983350277, -0.016606934368610382, -0.016136908903717995, -0.015666883438825607, -0.015196857042610645, -0.014726831577718258, -0.01425680611282587, -0.013786780647933483, -0.013316755183041096, -0.012846729718148708, -0.012376704253256321, -0.011906678788363934, -0.011436653323471546, -0.010966627858579159, -0.010496602393686771, -0.01002657599747181, -0.009556550532579422, -0.009086525067687035, -0.008616499602794647, -0.00814647413790226, -0.0076764486730098724, -0.007206423208117485, -0.006736397743225098, -0.006266373209655285, -0.0057963477447628975, -0.00532632227987051, -0.004856296814978123, -0.004386271350085735, -0.003916245419532061, -0.0034462199546396732, -0.002976194489747286, -0.0025061690248548985, -0.002036143559962511, -0.0015661179786548018, -0.0010960923973470926, -0.0006260669324547052, -0.00015604140935465693, 0.00031398411374539137, 0.0007840096368454397, 0.001254035159945488, 0.0017240606248378754, 0.0021940860897302628, 0.002664111787453294, 0.003134137252345681, 0.0036041627172380686, 0.0040741884149611, 0.004544213879853487, 0.005014239344745874, 0.005484264809638262, 0.005954290274530649, 0.006424315739423037, 0.006894341669976711, 0.007364367134869099, 0.007834392599761486, 0.008304418064653873, 0.00877444352954626]}, "gradients/linearlayers.1.0.weight": {"_type": "histogram", "values": [1.0, 0.0, 0.0, 0.0, 0.0, 0.0, 0.0, 0.0, 0.0, 1.0, 3.0, 2.0, 3.0, 3.0, 1.0, 1.0, 4.0, 6.0, 3.0, 7.0, 10.0, 18.0, 16.0, 14.0, 21.0, 26.0, 28.0, 50.0, 46.0, 62.0, 79.0, 82.0, 137.0, 146.0, 164.0, 213.0, 277.0, 340.0, 441.0, 580.0, 746.0, 995.0, 1452.0, 2167.0, 6104.0, 48060.0, 1514.0, 706.0, 361.0, 228.0, 126.0, 98.0, 67.0, 38.0, 28.0, 19.0, 19.0, 9.0, 7.0, 5.0, 0.0, 0.0, 1.0, 1.0], "bins": [-0.02762792631983757, -0.027016790583729744, -0.026405654847621918, -0.02579451911151409, -0.025183383375406265, -0.02457224763929844, -0.023961113765835762, -0.023349978029727936, -0.02273884229362011, -0.022127706557512283, -0.021516570821404457, -0.02090543508529663, -0.020294299349188805, -0.01968316361308098, -0.019072027876973152, -0.018460892140865326, -0.01784975826740265, -0.017238622531294823, -0.016627486795186996, -0.01601635105907917, -0.015405215322971344, -0.014794079586863518, -0.014182943850755692, -0.013571808114647865, -0.012960672378540039, -0.012349537573754787, -0.011738401837646961, -0.011127266101539135, -0.010516130365431309, -0.009904994629323483, -0.009293859824538231, -0.008682724088430405, -0.008071588352322578, -0.007460452616214752, -0.006849317345768213, -0.006238181609660387, -0.005627046339213848, -0.005015910603106022, -0.004404774866998196, -0.003793639363721013, -0.0031825038604438305, -0.002571368357166648, -0.0019602328538894653, -0.001349097117781639, -0.0007379616145044565, -0.00012682605301961303, 0.00048430950846523046, 0.0010954451281577349, 0.0017065806314349174, 0.0023177161347121, 0.0029288516379892826, 0.003539987374097109, 0.004151122644543648, 0.004762258380651474, 0.0053733941167593, 0.005984529387205839, 0.006595665123313665, 0.007206800859421492, 0.00781793612986803, 0.008429071865975857, 0.009040207602083683, 0.00965134333819151, 0.01026247814297676, 0.010873613879084587, 0.011484749615192413]}, "gradients/linearlayers.0.0.bias": {"_type": "histogram", "values": [1.0, 0.0, 2.0, 2.0, 0.0, 1.0, 0.0, 0.0, 0.0, 0.0, 0.0, 1.0, 1.0, 3.0, 2.0, 0.0, 1.0, 3.0, 0.0, 3.0, 0.0, 1.0, 5.0, 4.0, 4.0, 1.0, 2.0, 2.0, 1.0, 1.0, 1.0, 2.0, 3.0, 3.0, 1.0, 5.0, 3.0, 7.0, 5.0, 4.0, 2.0, 6.0, 3.0, 8.0, 9.0, 9.0, 76.0, 16.0, 12.0, 10.0, 5.0, 4.0, 6.0, 2.0, 1.0, 2.0, 3.0, 2.0, 2.0, 1.0, 0.0, 0.0, 0.0, 2.0], "bins": [-0.013100420124828815, -0.012818694114685059, -0.012536969035863876, -0.01225524302572012, -0.011973517015576363, -0.01169179193675518, -0.011410065926611423, -0.011128339916467667, -0.010846614837646484, -0.010564888827502728, -0.01028316281735897, -0.010001436807215214, -0.009719711728394032, -0.009437985718250275, -0.009156259708106518, -0.008874534629285336, -0.008592808619141579, -0.008311082608997822, -0.00802935753017664, -0.007747631520032883, -0.007465905509889126, -0.007184179965406656, -0.006902454420924187, -0.00662072841078043, -0.00633900286629796, -0.006057277321815491, -0.005775551311671734, -0.005493825767189264, -0.005212100222706795, -0.004930374212563038, -0.004648648668080568, -0.0043669226579368114, -0.004085196182131767, -0.003803470404818654, -0.003521744627505541, -0.0032400190830230713, -0.002958293305709958, -0.002676567528396845, -0.0023948419839143753, -0.002113116206601262, -0.0018313904292881489, -0.0015496646519750357, -0.0012679389910772443, -0.000986213330179453, -0.0007044875528663397, -0.0004227618337608874, -0.00014103611465543509, 0.00014068960445001721, 0.0004224153235554695, 0.0007041410426609218, 0.0009858667617663741, 0.0012675924226641655, 0.0015493181999772787, 0.001831043977290392, 0.0021127695217728615, 0.0023944952990859747, 0.002676221076399088, 0.002957946853712201, 0.0032396726310253143, 0.003521398175507784, 0.003803123952820897, 0.00408484973013401, 0.00436657527461648, 0.004648301284760237, 0.004930026829242706]}, "gradients/linearlayers.0.0.weight": {"_type": "histogram", "values": [1.0, 0.0, 1.0, 3.0, 1.0, 1.0, 3.0, 1.0, 1.0, 0.0, 0.0, 1.0, 0.0, 4.0, 5.0, 10.0, 13.0, 12.0, 16.0, 12.0, 12.0, 8.0, 25.0, 36.0, 37.0, 33.0, 45.0, 55.0, 65.0, 91.0, 95.0, 125.0, 133.0, 159.0, 197.0, 207.0, 270.0, 300.0, 365.0, 425.0, 535.0, 665.0, 942.0, 1311.0, 1954.0, 4203.0, 47771.0, 3117.0, 1018.0, 507.0, 296.0, 156.0, 119.0, 70.0, 38.0, 18.0, 19.0, 18.0, 5.0, 1.0, 1.0, 1.0, 2.0, 1.0], "bins": [-0.021176962181925774, -0.02072199620306492, -0.020267030224204063, -0.019812066107988358, -0.019357100129127502, -0.018902134150266647, -0.018447168171405792, -0.017992204055190086, -0.01753723807632923, -0.017082272097468376, -0.01662730611860752, -0.016172342002391815, -0.01571737602353096, -0.015262410044670105, -0.014807444997131824, -0.01435247901827097, -0.013897513970732689, -0.013442547991871834, -0.012987582013010979, -0.012532616965472698, -0.012077650986611843, -0.011622685939073563, -0.011167719960212708, -0.010712754912674427, -0.010257788933813572, -0.009802823886275291, -0.009347857907414436, -0.008892892859876156, -0.0084379268810153, -0.00798296183347702, -0.007527995854616165, -0.007073030341416597, -0.00661806482821703, -0.006163099315017462, -0.005708133801817894, -0.005253168288618326, -0.004798202775418758, -0.004343237262219191, -0.003888271516188979, -0.0034333060029894114, -0.0029783404897898436, -0.0025233749765902758, -0.002068409463390708, -0.0016134438337758183, -0.0011584783205762506, -0.0007035128073766828, -0.00024854723596945405, 0.0002064183063339442, 0.0006613838486373425, 0.0011163493618369102, 0.001571314875036478, 0.002026280388236046, 0.0024812459014356136, 0.002936211647465825, 0.003391177160665393, 0.0038461426738649607, 0.004301108419895172, 0.00475607393309474, 0.005211039446294308, 0.0056660049594938755, 0.006120970472693443, 0.006575935985893011, 0.007030901499092579, 0.007485867012292147, 0.007940832525491714]}, "gradients/embeds.2.bias": {"_type": "histogram", "values": [1.0, 0.0, 0.0, 1.0, 0.0, 0.0, 0.0, 0.0, 0.0, 0.0, 2.0, 0.0, 0.0, 0.0, 1.0, 1.0, 3.0, 1.0, 0.0, 3.0, 0.0, 2.0, 2.0, 2.0, 4.0, 1.0, 3.0, 0.0, 5.0, 2.0, 1.0, 6.0, 1.0, 3.0, 2.0, 6.0, 1.0, 3.0, 4.0, 0.0, 4.0, 2.0, 5.0, 6.0, 1.0, 3.0, 7.0, 4.0, 9.0, 12.0, 11.0, 75.0, 8.0, 11.0, 6.0, 6.0, 5.0, 5.0, 4.0, 1.0, 4.0, 2.0, 3.0, 1.0], "bins": [-0.011341421864926815, -0.011121388524770737, -0.010901354253292084, -0.010681320913136005, -0.010461286641657352, -0.010241253301501274, -0.010021219030022621, -0.009801185689866543, -0.009581152349710464, -0.009361118078231812, -0.009141084738075733, -0.00892105046659708, -0.008701017126441002, -0.008480983786284924, -0.00826094951480627, -0.008040916174650192, -0.00782088190317154, -0.007600848563015461, -0.007380814757198095, -0.00716078095138073, -0.006940747145563364, -0.006720713339745998, -0.006500679533928633, -0.006280646193772554, -0.006060612387955189, -0.005840578582137823, -0.0056205447763204575, -0.005400510970503092, -0.005180477164685726, -0.004960443824529648, -0.004740410018712282, -0.0045203762128949165, -0.004300341941416264, -0.004080308601260185, -0.0038602747954428196, -0.003640240989625454, -0.0034202071838080883, -0.0032001736108213663, -0.0029801398050040007, -0.002760105999186635, -0.002540072426199913, -0.0023200386203825474, -0.0021000048145651817, -0.001879971125163138, -0.001659937435761094, -0.0014399036299437284, -0.0012198699405416846, -0.000999836134724319, -0.0007798024453222752, -0.0005597686977125704, -0.00033973497920669615, -0.00011970124614890665, 0.00010033248690888286, 0.0003203662345185876, 0.0005403999239206314, 0.0007604336715303361, 0.0009804674191400409, 0.0012005011085420847, 0.0014205349143594503, 0.0016405686037614942, 0.001860602293163538, 0.0020806360989809036, 0.0023006699047982693, 0.0025207034777849913, 0.002740737283602357]}, "gradients/embeds.2.weight": {"_type": "histogram", "values": [2.0, 0.0, 0.0, 0.0, 1.0, 0.0, 3.0, 1.0, 3.0, 3.0, 5.0, 5.0, 5.0, 0.0, 3.0, 6.0, 10.0, 15.0, 10.0, 16.0, 19.0, 25.0, 24.0, 37.0, 46.0, 35.0, 50.0, 68.0, 88.0, 81.0, 114.0, 130.0, 154.0, 167.0, 215.0, 228.0, 283.0, 328.0, 398.0, 475.0, 490.0, 645.0, 749.0, 915.0, 1154.0, 1401.0, 1931.0, 2262.0, 3227.0, 4824.0, 8741.0, 79519.0, 15205.0, 3519.0, 1546.0, 812.0, 457.0, 280.0, 155.0, 91.0, 47.0, 26.0, 15.0, 8.0], "bins": [-0.017250200733542442, -0.016918007284402847, -0.0165858156979084, -0.016253622248768806, -0.01592142879962921, -0.015589236281812191, -0.01525704376399517, -0.01492485124617815, -0.01459265872836113, -0.014260465279221535, -0.013928272761404514, -0.013596080243587494, -0.013263886794447899, -0.012931694276630878, -0.012599501758813858, -0.012267308309674263, -0.011935115791857243, -0.011602923274040222, -0.011270729824900627, -0.010938537307083607, -0.010606344789266586, -0.010274151340126991, -0.00994195882230997, -0.00960976630449295, -0.009277572855353355, -0.008945380337536335, -0.008613187819719315, -0.008280995301902294, -0.007948801852762699, -0.007616609334945679, -0.007284416351467371, -0.006952223833650351, -0.006620030850172043, -0.006287837866693735, -0.005955645348876715, -0.005623452365398407, -0.0052912598475813866, -0.004959066864103079, -0.004626873880624771, -0.004294681362807751, -0.003962488379329443, -0.003630295628681779, -0.003298102878034115, -0.002965909894555807, -0.002633717143908143, -0.002301524393260479, -0.0019693314097821712, -0.0016371386591345072, -0.0013049459084868431, -0.0009727530996315181, -0.0006405602907761931, -0.00030836748192086816, 2.3825326934456825e-05, 0.0003560181357897818, 0.0006882109446451068, 0.0010204038117080927, 0.0013525965623557568, 0.0016847893130034208, 0.002016982063651085, 0.0023491750471293926, 0.0026813677977770567, 0.0030135605484247208, 0.0033457535319030285, 0.0036779462825506926, 0.004010139033198357]}, "gradients/embeds.0.bias": {"_type": "histogram", "values": [1.0, 0.0, 0.0, 0.0, 0.0, 0.0, 0.0, 0.0, 0.0, 1.0, 0.0, 0.0, 0.0, 0.0, 0.0, 2.0, 0.0, 0.0, 2.0, 1.0, 4.0, 2.0, 0.0, 4.0, 4.0, 2.0, 4.0, 9.0, 6.0, 3.0, 2.0, 7.0, 9.0, 7.0, 9.0, 10.0, 10.0, 12.0, 13.0, 20.0, 19.0, 14.0, 15.0, 24.0, 19.0, 24.0, 82.0, 50.0, 36.0, 25.0, 18.0, 13.0, 7.0, 2.0, 4.0, 5.0, 3.0, 2.0, 2.0, 0.0, 2.0, 1.0, 0.0, 1.0], "bins": [-0.008003626950085163, -0.007833329029381275, -0.007663031108677387, -0.007492733187973499, -0.007322435267269611, -0.007152137346565723, -0.0069818394258618355, -0.0068115415051579475, -0.00664124358445406, -0.006470945663750172, -0.006300647743046284, -0.006130349822342396, -0.005960051901638508, -0.00578975398093462, -0.005619456060230732, -0.005449158139526844, -0.005278860218822956, -0.005108561832457781, -0.004938263911753893, -0.004767965991050005, -0.004597668070346117, -0.004427370149642229, -0.004257072228938341, -0.004086774308234453, -0.003916476387530565, -0.0037461784668266773, -0.0035758805461227894, -0.0034055826254189014, -0.0032352847047150135, -0.0030649867840111256, -0.0028946888633072376, -0.0027243909426033497, -0.002554092789068818, -0.00238379486836493, -0.002213496947661042, -0.0020431990269571543, -0.0018729011062532663, -0.0017026030691340566, -0.0015323051484301686, -0.0013620072277262807, -0.0011917093070223927, -0.0010214113863185048, -0.0008511134656146169, -0.000680815486703068, -0.0005105175659991801, -0.00034021964529529214, -0.00016992169548757374, 3.7623976822942495e-07, 0.0001706741750240326, 0.00034097209572792053, 0.0005112700164318085, 0.0006815679953433573, 0.0008518659160472453, 0.0010221638949587941, 0.001192461815662682, 0.00136275973636657, 0.001533057657070458, 0.0017033555777743459, 0.0018736534984782338, 0.0020439515355974436, 0.0022142494563013315, 0.0023845473770052195, 0.0025548452977091074, 0.0027251432184129953, 0.0028954411391168833]}, "gradients/embeds.0.weight": {"_type": "histogram", "values": [1.0, 0.0, 0.0, 0.0, 0.0, 0.0, 0.0, 0.0, 0.0, 2.0, 0.0, 0.0, 0.0, 1.0, 1.0, 0.0, 3.0, 1.0, 3.0, 1.0, 4.0, 4.0, 2.0, 9.0, 7.0, 9.0, 11.0, 9.0, 10.0, 18.0, 17.0, 11.0, 22.0, 21.0, 24.0, 35.0, 47.0, 65.0, 102.0, 149.0, 251.0, 850.0, 8855.0, 344948.0, 34953.0, 2004.0, 392.0, 134.0, 72.0, 43.0, 36.0, 24.0, 27.0, 11.0, 9.0, 8.0, 2.0, 4.0, 0.0, 3.0, 0.0, 0.0, 0.0, 1.0], "bins": [-0.09380193054676056, -0.09165527671575546, -0.08950862288475037, -0.08736196905374527, -0.08521530777215958, -0.08306865394115448, -0.08092200011014938, -0.07877534627914429, -0.07662869244813919, -0.0744820386171341, -0.0723353773355484, -0.0701887235045433, -0.06804206967353821, -0.06589541584253311, -0.06374876201152802, -0.06160210445523262, -0.059455450624227524, -0.05730879679322243, -0.05516213923692703, -0.053015485405921936, -0.05086883157491684, -0.048722174018621445, -0.04657552018761635, -0.04442886635661125, -0.04228220880031586, -0.04013555496931076, -0.037988901138305664, -0.03584224730730057, -0.03369558975100517, -0.031548935920000076, -0.02940228022634983, -0.027255626395344734, -0.02510897070169449, -0.022962315008044243, -0.020815661177039146, -0.0186690054833889, -0.016522351652383804, -0.014375695958733559, -0.012229040265083313, -0.010082385502755642, -0.007935730740427971, -0.0057890759781003, -0.0036424207501113415, -0.0014957657549530268, 0.0006508892402052879, 0.0027975442353636026, 0.004944199230521917, 0.007090854458510876, 0.009237509220838547, 0.011384163983166218, 0.013530818745493889, 0.015677474439144135, 0.01782412827014923, 0.019970783963799477, 0.022117439657449722, 0.02426409348845482, 0.026410749182105064, 0.02855740487575531, 0.030704058706760406, 0.0328507125377655, 0.0349973700940609, 0.037144023925065994, 0.03929067775607109, 0.041437335312366486, 0.04358398914337158]}, "num_of_test_examples": 0, "test_loss": 7.848570123314858e-05, "_wandb": {"runtime": 26}}