{"num_of_examples": 2320, "train_loss": 0.007594460621476173, "_timestamp": 1716166323.0073593, "_runtime": 37.39301919937134, "_step": 61, "gradients/output.bias": {"_type": "histogram", "values": [1.0], "bins": [0.015691153705120087, 0.015691153705120087]}, "gradients/output.weight": {"_type": "histogram", "values": [1.0, 0.0, 2.0, 0.0, 2.0, 4.0, 125.0, 7.0, 11.0, 8.0, 1.0, 4.0, 4.0, 8.0, 4.0, 1.0, 3.0, 5.0, 3.0, 4.0, 3.0, 4.0, 0.0, 3.0, 2.0, 5.0, 4.0, 0.0, 4.0, 3.0, 1.0, 3.0, 3.0, 1.0, 1.0, 2.0, 3.0, 0.0, 0.0, 3.0, 1.0, 2.0, 1.0, 1.0, 0.0, 1.0, 0.0, 0.0, 0.0, 1.0, 3.0, 1.0, 0.0, 0.0, 1.0, 0.0, 0.0, 1.0, 0.0, 0.0, 0.0, 0.0, 0.0, 1.0], "bins": [-0.0020144376903772354, -0.0017254429403692484, -0.0014364481903612614, -0.0011474533239379525, -0.0008584585739299655, -0.0005694638239219785, -0.00028046901570633054, 8.525763405486941e-06, 0.0002975205425173044, 0.0005865152925252914, 0.0008755101007409394, 0.0011645049089565873, 0.0014534996589645743, 0.0017424944089725614, 0.00203148927539587, 0.0023204840254038572, 0.0026094787754118443, 0.0028984735254198313, 0.0031874682754278183, 0.0034764630254358053, 0.0037654577754437923, 0.004054452758282423, 0.004343447275459766, 0.004632442258298397, 0.004921437241137028, 0.005210431758314371, 0.005499426741153002, 0.005788421258330345, 0.006077416241168976, 0.006366410758346319, 0.00665540574118495, 0.006944400258362293, 0.007233395241200924, 0.007522390224039555, 0.007811384741216898, 0.008100379258394241, 0.008389374241232872, 0.008678369224071503, 0.008967364206910133, 0.00925635825842619, 0.00954535324126482, 0.00983434822410345, 0.010123343206942081, 0.010412338189780712, 0.010701332241296768, 0.010990327224135399, 0.01127932220697403, 0.01156831718981266, 0.011857312172651291, 0.012146306224167347, 0.012435301207005978, 0.012724296189844608, 0.013013291172683239, 0.013302285224199295, 0.013591280207037926, 0.013880275189876556, 0.014169270172715187, 0.014458265155553818, 0.014747259207069874, 0.015036254189908504, 0.015325249172747135, 0.015614244155585766, 0.015903238207101822, 0.016192233189940453, 0.016481228172779083]}, "gradients/linearlayers.4.0.bias": {"_type": "histogram", "values": [1.0, 0.0, 0.0, 0.0, 0.0, 0.0, 0.0, 0.0, 0.0, 0.0, 0.0, 0.0, 1.0, 0.0, 0.0, 1.0, 1.0, 2.0, 0.0, 1.0, 2.0, 2.0, 2.0, 1.0, 2.0, 1.0, 4.0, 3.0, 3.0, 2.0, 3.0, 1.0, 6.0, 3.0, 3.0, 117.0, 2.0, 5.0, 4.0, 10.0, 6.0, 4.0, 2.0, 5.0, 10.0, 9.0, 7.0, 1.0, 6.0, 8.0, 5.0, 7.0, 1.0, 1.0, 0.0, 0.0, 0.0, 0.0, 0.0, 0.0, 0.0, 0.0, 0.0, 1.0], "bins": [-0.002090719062834978, -0.0020312012638896704, -0.0019716834649443626, -0.001912165549583733, -0.0018526477506384254, -0.0017931299516931176, -0.001733612036332488, -0.0016740942373871803, -0.0016145764384418726, -0.0015550586394965649, -0.0014955408405512571, -0.0014360229251906276, -0.0013765051262453198, -0.0013169873273000121, -0.0012574694119393826, -0.0011979516129940748, -0.001138433814048767, -0.0010789160151034594, -0.0010193982161581516, -0.0009598803007975221, -0.0009003625018522143, -0.0008408447029069066, -0.000781326845753938, -0.0007218089886009693, -0.0006622911896556616, -0.0006027733907103539, -0.0005432555335573852, -0.000483737705508247, -0.00042421987745910883, -0.00036470204940997064, -0.00030518422136083245, -0.00024566639331169426, -0.0001861486816778779, -0.00012663085362873971, -6.711302557960153e-05, -7.595197530463338e-06, 5.192263051867485e-05, 0.00011144045856781304, 0.00017095828661695123, 0.00023047611466608942, 0.0002899939427152276, 0.0003495117707643658, 0.000409029598813504, 0.00046854742686264217, 0.0005280652549117804, 0.0005875830538570881, 0.0006471009110100567, 0.0007066187681630254, 0.0007661365671083331, 0.0008256543660536408, 0.0008851722232066095, 0.0009446900803595781, 0.0010042078793048859, 0.0010637256782501936, 0.0011232434771955013, 0.0011827613925561309, 0.0012422791915014386, 0.0013017969904467463, 0.001361314905807376, 0.0014208327047526836, 0.0014803505036979914, 0.001539868302643299, 0.0015993861015886068, 0.0016589040169492364, 0.0017184218158945441]}, "gradients/linearlayers.4.0.weight": {"_type": "histogram", "values": [1.0, 0.0, 0.0, 0.0, 0.0, 0.0, 0.0, 0.0, 0.0, 0.0, 1.0, 1.0, 3.0, 2.0, 3.0, 2.0, 5.0, 5.0, 5.0, 6.0, 15.0, 17.0, 16.0, 38.0, 50.0, 51.0, 76.0, 89.0, 121.0, 174.0, 207.0, 243.0, 371.0, 490.0, 696.0, 1243.0, 2647.0, 50193.0, 2041.0, 1471.0, 1123.0, 894.0, 659.0, 489.0, 479.0, 408.0, 289.0, 227.0, 168.0, 128.0, 122.0, 92.0, 63.0, 45.0, 24.0, 16.0, 1.0, 2.0, 3.0, 3.0, 4.0, 6.0, 5.0, 3.0], "bins": [-0.0019364022882655263, -0.0018842765130102634, -0.0018321506213396788, -0.001780024846084416, -0.001727899070829153, -0.0016757731791585684, -0.0016236474039033055, -0.0015715216286480427, -0.001519395736977458, -0.0014672699617221951, -0.0014151441864669323, -0.0013630184112116694, -0.0013108925195410848, -0.001258766744285822, -0.001206640969030559, -0.0011545150773599744, -0.0011023893021047115, -0.0010502635268494487, -0.000998137635178864, -0.0009460118599236012, -0.0008938860846683383, -0.0008417602512054145, -0.0007896344177424908, -0.0007375086424872279, -0.0006853828090243042, -0.0006332569755613804, -0.0005811312003061175, -0.0005290053668431938, -0.00047687956248410046, -0.00042475375812500715, -0.0003726279246620834, -0.0003205021203029901, -0.00026837631594389677, -0.00021625051158480346, -0.00016412469267379493, -0.000111998881038744, -5.987306940369308e-05, -7.747257768642157e-06, 4.4378553866408765e-05, 9.650436550145969e-05, 0.0001486301771365106, 0.00020075598149560392, 0.00025288178585469723, 0.000305007619317621, 0.0003571334236767143, 0.0004092592280358076, 0.0004613850614987314, 0.0005135108367539942, 0.000565636670216918, 0.0006177625036798418, 0.0006698882789351046, 0.0007220141123980284, 0.0007741398876532912, 0.000826265721116215, 0.0008783915545791388, 0.0009305173298344016, 0.0009826431050896645, 0.0010347689967602491, 0.001086894772015512, 0.0011390205472707748, 0.0011911464389413595, 0.0012432722141966224, 0.0012953979894518852, 0.00134752388112247, 0.0013996496563777328]}, "gradients/linearlayers.3.0.bias": {"_type": "histogram", "values": [1.0, 0.0, 0.0, 0.0, 0.0, 0.0, 0.0, 0.0, 1.0, 0.0, 0.0, 0.0, 0.0, 0.0, 0.0, 0.0, 1.0, 0.0, 1.0, 0.0, 0.0, 0.0, 2.0, 1.0, 3.0, 2.0, 2.0, 4.0, 0.0, 3.0, 2.0, 8.0, 8.0, 10.0, 108.0, 10.0, 4.0, 2.0, 4.0, 12.0, 7.0, 3.0, 9.0, 11.0, 5.0, 1.0, 6.0, 3.0, 4.0, 2.0, 4.0, 2.0, 3.0, 0.0, 3.0, 0.0, 0.0, 0.0, 1.0, 1.0, 0.0, 0.0, 1.0, 1.0], "bins": [-0.0019504418596625328, -0.0018943337490782142, -0.0018382255220785737, -0.001782117411494255, -0.0017260093009099364, -0.0016699011903256178, -0.0016137929633259773, -0.0015576848527416587, -0.00150157674215734, -0.0014454685151576996, -0.001389360404573381, -0.0013332522939890623, -0.0012771441834047437, -0.0012210359564051032, -0.0011649278458207846, -0.001108819735236466, -0.0010527116246521473, -0.0009966033976525068, -0.0009404952870681882, -0.0008843871182762086, -0.00082827900769189, -0.0007721708388999104, -0.0007160627283155918, -0.0006599545595236123, -0.0006038463907316327, -0.0005477382801473141, -0.0004916301113553345, -0.0004355220007710159, -0.00037941383197903633, -0.00032330569229088724, -0.00026719755260273814, -0.00021108941291458905, -0.00015498127322643995, -9.887313353829086e-05, -4.276498657418415e-05, 1.3343156751943752e-05, 6.945130007807165e-05, 0.00012555943976622075, 0.00018166759400628507, 0.00023777573369443417, 0.00029388387338258326, 0.00034999201307073236, 0.00040610015275888145, 0.00046220829244703054, 0.0005183164612390101, 0.0005744245718233287, 0.0006305327406153083, 0.0006866408511996269, 0.0007427490199916065, 0.000798857188783586, 0.0008549652993679047, 0.0009110734681598842, 0.0009671815787442029, 0.0010232897475361824, 0.001079397858120501, 0.0011355059687048197, 0.0011916141957044601, 0.0012477223062887788, 0.0013038304168730974, 0.0013599386438727379, 0.0014160467544570565, 0.0014721548650413752, 0.0015282629756256938, 0.0015843712026253343, 0.001640479313209653]}, "gradients/linearlayers.3.0.weight": {"_type": "histogram", "values": [1.0, 3.0, 1.0, 0.0, 1.0, 2.0, 0.0, 1.0, 1.0, 4.0, 4.0, 4.0, 8.0, 6.0, 8.0, 8.0, 9.0, 13.0, 17.0, 23.0, 24.0, 38.0, 47.0, 55.0, 94.0, 107.0, 204.0, 263.0, 444.0, 806.0, 1645.0, 46603.0, 5701.0, 2453.0, 1761.0, 1347.0, 826.0, 746.0, 519.0, 392.0, 314.0, 203.0, 192.0, 135.0, 96.0, 71.0, 66.0, 51.0, 55.0, 36.0, 38.0, 32.0, 15.0, 6.0, 8.0, 6.0, 12.0, 6.0, 2.0, 1.0, 0.0, 1.0, 0.0, 1.0], "bins": [-0.0017938814125955105, -0.0017377808690071106, -0.0016816803254187107, -0.0016255797818303108, -0.001569479238241911, -0.001513378694653511, -0.0014572781510651112, -0.0014011776074767113, -0.0013450770638883114, -0.0012889764038845897, -0.0012328758602961898, -0.00117677531670779, -0.00112067477311939, -0.0010645742295309901, -0.0010084736859425902, -0.0009523731423541903, -0.0008962725987657905, -0.0008401720551773906, -0.0007840715115889907, -0.0007279709680005908, -0.0006718704244121909, -0.0006157698226161301, -0.0005596692790277302, -0.0005035687354393303, -0.00044746819185093045, -0.00039136764826253057, -0.0003352671046741307, -0.00027916653198190033, -0.00022306598839350045, -0.00016696544480510056, -0.00011086488666478544, -5.4764335800427943e-05, 1.3360986486077309e-06, 5.743664951296523e-05, 0.00011353720037732273, 0.00016963775851763785, 0.00022573830210603774, 0.0002818388456944376, 0.00033793941838666797, 0.00039403996197506785, 0.00045014050556346774, 0.0005062410491518676, 0.0005623415927402675, 0.0006184421363286674, 0.0006745427381247282, 0.0007306432817131281, 0.000786743825301528, 0.0008428443688899279, 0.0008989449124783278, 0.0009550454560667276, 0.0010111459996551275, 0.0010672465432435274, 0.0011233470868319273, 0.0011794476304203272, 0.001235548174008727, 0.001291648717597127, 0.0013477492611855268, 0.0014038499211892486, 0.0014599504647776484, 0.0015160510083660483, 0.0015721515519544482, 0.0016282520955428481, 0.001684352639131248, 0.0017404531827196479, 0.0017965537263080478]}, "gradients/linearlayers.2.0.bias": {"_type": "histogram", "values": [1.0, 0.0, 0.0, 0.0, 0.0, 0.0, 0.0, 0.0, 1.0, 0.0, 0.0, 1.0, 0.0, 0.0, 0.0, 2.0, 0.0, 2.0, 0.0, 2.0, 3.0, 4.0, 5.0, 1.0, 4.0, 5.0, 6.0, 3.0, 7.0, 4.0, 7.0, 92.0, 8.0, 7.0, 6.0, 7.0, 4.0, 10.0, 8.0, 3.0, 3.0, 5.0, 1.0, 3.0, 6.0, 6.0, 6.0, 2.0, 3.0, 2.0, 1.0, 1.0, 3.0, 1.0, 0.0, 1.0, 3.0, 2.0, 1.0, 0.0, 1.0, 0.0, 1.0, 1.0], "bins": [-0.0011964545119553804, -0.0011582481674849987, -0.0011200419394299388, -0.0010818357113748789, -0.0010436293669044971, -0.0010054230224341154, -0.0009672167943790555, -0.0009290105081163347, -0.0008908042218536139, -0.000852597935590893, -0.0008143916493281722, -0.0007761853630654514, -0.0007379790768027306, -0.0006997727905400097, -0.0006615665042772889, -0.0006233602180145681, -0.0005851539317518473, -0.0005469476454891264, -0.0005087413592264056, -0.0004705350729636848, -0.000432328786700964, -0.00039412250043824315, -0.00035591621417552233, -0.0003177099279128015, -0.0002795036416500807, -0.00024129735538735986, -0.00020309106912463903, -0.0001648847828619182, -0.0001266784965991974, -8.847221033647656e-05, -5.026592407375574e-05, -1.2059637811034918e-05, 2.6146648451685905e-05, 6.435293471440673e-05, 0.00010255922097712755, 0.00014076550723984838, 0.0001789717935025692, 0.00021717807976529002, 0.00025538436602801085, 0.00029359065229073167, 0.0003317969385534525, 0.0003700032248161733, 0.00040820951107889414, 0.00044641579734161496, 0.0004846220836043358, 0.0005228283698670566, 0.0005610346561297774, 0.0005992409423924983, 0.0006374472286552191, 0.0006756535149179399, 0.0007138598011806607, 0.0007520660874433815, 0.0007902723737061024, 0.0008284786599688232, 0.000866684946231544, 0.0009048912324942648, 0.0009430975187569857, 0.0009813038632273674, 0.0010195100912824273, 0.0010577163193374872, 0.001095922663807869, 0.0011341290082782507, 0.0011723352363333106, 0.0012105414643883705, 0.0012487478088587523]}, "gradients/linearlayers.2.0.weight": {"_type": "histogram", "values": [1.0, 0.0, 0.0, 0.0, 0.0, 2.0, 0.0, 2.0, 5.0, 2.0, 2.0, 5.0, 5.0, 16.0, 16.0, 22.0, 20.0, 35.0, 46.0, 80.0, 80.0, 189.0, 386.0, 644.0, 1257.0, 3139.0, 48639.0, 3824.0, 1875.0, 1208.0, 903.0, 682.0, 542.0, 418.0, 314.0, 254.0, 205.0, 174.0, 127.0, 88.0, 80.0, 45.0, 45.0, 33.0, 32.0, 15.0, 13.0, 19.0, 13.0, 7.0, 7.0, 5.0, 3.0, 6.0, 2.0, 0.0, 0.0, 0.0, 2.0, 0.0, 0.0, 0.0, 1.0, 1.0], "bins": [-0.0015676182229071856, -0.001508447341620922, -0.0014492765767499804, -0.001390105695463717, -0.0013309349305927753, -0.0012717640493065119, -0.0012125932844355702, -0.0011534224031493068, -0.0010942516382783651, -0.0010350807569921017, -0.0009759099339134991, -0.0009167391108348966, -0.000857568287756294, -0.0007983974646776915, -0.0007392266415990889, -0.0006800558185204864, -0.0006208849954418838, -0.0005617141723632812, -0.0005025433492846787, -0.00044337252620607615, -0.0003842017031274736, -0.0003250308509450406, -0.00026586002786643803, -0.00020668920478783548, -0.00014751838170923293, -8.834755863063037e-05, -2.9176728276070207e-05, 2.9994098440511152e-05, 8.916492515709251e-05, 0.00014833574823569506, 0.00020750658586621284, 0.0002666774089448154, 0.00032584823202341795, 0.0003850190551020205, 0.00044418987818062305, 0.0005033607012592256, 0.0005625315243378282, 0.0006217023474164307, 0.0006808731704950333, 0.0007400439935736358, 0.0007992148166522384, 0.0008583856979385018, 0.0009175565210171044, 0.000976727344095707, 0.0010358981089666486, 0.001095068990252912, 0.0011542397551238537, 0.0012134106364101171, 0.0012725815176963806, 0.0013317522825673223, 0.0013909231638535857, 0.0014500939287245274, 0.0015092648100107908, 0.0015684355748817325, 0.001627606456167996, 0.0016867772210389376, 0.001745948102325201, 0.0018051188671961427, 0.0018642897484824061, 0.0019234605133533478, 0.0019826313946396112, 0.0020418022759258747, 0.0021009729243814945, 0.002160143805667758, 0.0022193146869540215]}, "gradients/linearlayers.1.0.bias": {"_type": "histogram", "values": [1.0, 0.0, 0.0, 0.0, 0.0, 0.0, 0.0, 0.0, 0.0, 0.0, 0.0, 0.0, 0.0, 0.0, 0.0, 1.0, 0.0, 1.0, 4.0, 0.0, 4.0, 7.0, 2.0, 8.0, 6.0, 5.0, 10.0, 99.0, 15.0, 11.0, 12.0, 11.0, 17.0, 9.0, 5.0, 8.0, 3.0, 4.0, 2.0, 4.0, 0.0, 1.0, 1.0, 3.0, 0.0, 0.0, 1.0, 0.0, 0.0, 0.0, 0.0, 0.0, 0.0, 0.0, 0.0, 0.0, 0.0, 0.0, 0.0, 0.0, 0.0, 0.0, 0.0, 1.0], "bins": [-0.0019342843443155289, -0.0018648643745109439, -0.0017954445211216807, -0.0017260245513170958, -0.0016566045815125108, -0.0015871847281232476, -0.0015177647583186626, -0.0014483447885140777, -0.0013789248187094927, -0.0013095049653202295, -0.0012400849955156446, -0.0011706650257110596, -0.0011012451723217964, -0.0010318252025172114, -0.0009624052909202874, -0.0008929853211157024, -0.0008235654095187783, -0.0007541454979218543, -0.0006847255281172693, -0.0006153056165203452, -0.0005458856467157602, -0.00047646573511883616, -0.0004070458235219121, -0.0003376258828211576, -0.00026820594212040305, -0.00019878600141964853, -0.00012936607527080923, -5.9946141846012324e-05, 9.473791578784585e-06, 7.88937250035815e-05, 0.0001483136584283784, 0.0002177335845772177, 0.0002871535252779722, 0.00035657346597872674, 0.00042599340667948127, 0.0004954133182764053, 0.0005648332880809903, 0.0006342531996779144, 0.0007036731112748384, 0.0007730930810794234, 0.0008425129926763475, 0.0009119329042732716, 0.0009813528740778565, 0.0010507728438824415, 0.0011201926972717047, 0.0011896126670762897, 0.0012590326368808746, 0.0013284524902701378, 0.0013978724600747228, 0.0014672924298793077, 0.001536712283268571, 0.0016061322530731559, 0.0016755522228777409, 0.001744972076267004, 0.001814392046071589, 0.001883812015876174, 0.001953231869265437, 0.002022651955485344, 0.002092071808874607, 0.0021614916622638702, 0.002230911748483777, 0.00230033160187304, 0.0023697514552623034, 0.00243917154148221, 0.0025085913948714733]}, "gradients/linearlayers.1.0.weight": {"_type": "histogram", "values": [1.0, 1.0, 1.0, 0.0, 0.0, 0.0, 1.0, 0.0, 1.0, 0.0, 2.0, 3.0, 3.0, 5.0, 5.0, 6.0, 6.0, 10.0, 15.0, 21.0, 30.0, 70.0, 137.0, 271.0, 672.0, 1461.0, 4667.0, 50518.0, 3341.0, 1688.0, 958.0, 583.0, 341.0, 241.0, 143.0, 92.0, 72.0, 45.0, 31.0, 20.0, 17.0, 11.0, 11.0, 6.0, 6.0, 7.0, 3.0, 3.0, 4.0, 1.0, 0.0, 1.0, 0.0, 0.0, 1.0, 0.0, 0.0, 0.0, 0.0, 1.0, 0.0, 1.0, 0.0, 1.0], "bins": [-0.002986535429954529, -0.002876558341085911, -0.002766581019386649, -0.002656603930518031, -0.0025466266088187695, -0.0024366495199501514, -0.0023266721982508898, -0.0022166951093822718, -0.00210671778768301, -0.001996740698814392, -0.0018867634935304523, -0.0017767862882465124, -0.0016668091993778944, -0.0015568319940939546, -0.0014468547888100147, -0.0013368775835260749, -0.001226900378242135, -0.0011169231729581952, -0.0010069459676742554, -0.0008969688205979764, -0.0007869916153140366, -0.0006770144100300968, -0.0005670372629538178, -0.000457060057669878, -0.00034708285238593817, -0.00023710566165391356, -0.00012712847092188895, -1.7151280189864337e-05, 9.282591054216027e-05, 0.00020280310127418488, 0.0003127802920062095, 0.0004227574681863189, 0.0005327346734702587, 0.0006427118787541986, 0.0007526890840381384, 0.0008626662311144173, 0.0009726434363983572, 0.001082620583474636, 0.001192597788758576, 0.0013025749940425158, 0.0014125521993264556, 0.0015225294046103954, 0.0016325066098943353, 0.001742483815178275, 0.0018524609040468931, 0.001962438225746155, 0.002072415314614773, 0.0021823926363140345, 0.0022923697251826525, 0.0024023468140512705, 0.002512324135750532, 0.00262230122461915, 0.002732278546318412, 0.00284225563518703, 0.0029522329568862915, 0.0030622100457549095, 0.0031721871346235275, 0.003282164456322789, 0.003392141545191407, 0.003502118866890669, 0.003612095955759287, 0.0037220732774585485, 0.0038320503663271666, 0.003942027688026428, 0.004052004776895046]}, "gradients/linearlayers.0.0.bias": {"_type": "histogram", "values": [2.0, 0.0, 0.0, 0.0, 0.0, 3.0, 2.0, 0.0, 0.0, 0.0, 1.0, 1.0, 0.0, 0.0, 2.0, 1.0, 4.0, 3.0, 2.0, 5.0, 1.0, 5.0, 3.0, 9.0, 5.0, 8.0, 9.0, 12.0, 77.0, 3.0, 5.0, 7.0, 9.0, 6.0, 9.0, 9.0, 5.0, 5.0, 8.0, 3.0, 1.0, 5.0, 2.0, 3.0, 3.0, 1.0, 1.0, 2.0, 1.0, 1.0, 1.0, 1.0, 3.0, 1.0, 2.0, 0.0, 2.0, 0.0, 0.0, 0.0, 0.0, 1.0, 0.0, 1.0], "bins": [-0.0008769053965806961, -0.0008458999800495803, -0.0008148945635184646, -0.0007838891469873488, -0.000752883730456233, -0.0007218783721327782, -0.0006908729556016624, -0.0006598675390705466, -0.0006288621225394309, -0.0005978567060083151, -0.0005668512894771993, -0.0005358458729460835, -0.0005048405146226287, -0.00047383506898768246, -0.00044282968156039715, -0.0004118242650292814, -0.0003808188484981656, -0.00034981343196704984, -0.00031880801543593407, -0.00028780262800864875, -0.000256797211477533, -0.0002257917949464172, -0.00019478639296721667, -0.00016378099098801613, -0.00013277557445690036, -0.0001017701652017422, -7.076475594658405e-05, -3.975934669142589e-05, -8.753937436267734e-06, 2.2251471818890423e-05, 5.325688107404858e-05, 8.426229032920673e-05, 0.00011526769958436489, 0.00014627311611548066, 0.0001772785180946812, 0.00020828392007388175, 0.00023928933660499752, 0.0002702947531361133, 0.0003013001405633986, 0.00033230555709451437, 0.00036331097362563014, 0.0003943163901567459, 0.0004253218066878617, 0.000456327194115147, 0.00048733261064626276, 0.0005183379980735481, 0.0005493434146046638, 0.0005803488311357796, 0.0006113542476668954, 0.0006423596641980112, 0.0006733650807291269, 0.0007043704972602427, 0.0007353759137913585, 0.0007663812721148133, 0.0007973866886459291, 0.0008283921051770449, 0.0008593975217081606, 0.0008904029382392764, 0.0009214083547703922, 0.000952413771301508, 0.0009834191296249628, 0.0010144246043637395, 0.0010454299626871943, 0.001076435437425971, 0.0011074407957494259]}, "gradients/linearlayers.0.0.weight": {"_type": "histogram", "values": [1.0, 1.0, 0.0, 2.0, 1.0, 2.0, 4.0, 5.0, 6.0, 3.0, 9.0, 10.0, 14.0, 19.0, 30.0, 30.0, 47.0, 76.0, 81.0, 134.0, 182.0, 245.0, 356.0, 552.0, 913.0, 1589.0, 3515.0, 42733.0, 5989.0, 2675.0, 1652.0, 1079.0, 794.0, 637.0, 462.0, 356.0, 247.0, 233.0, 155.0, 135.0, 118.0, 89.0, 72.0, 62.0, 41.0, 35.0, 37.0, 32.0, 18.0, 12.0, 7.0, 11.0, 7.0, 6.0, 2.0, 5.0, 2.0, 0.0, 0.0, 1.0, 1.0, 2.0, 1.0, 1.0], "bins": [-0.001566056627780199, -0.001509512891061604, -0.0014529690379276872, -0.0013964253012090921, -0.0013398815644904971, -0.0012833377113565803, -0.0012267939746379852, -0.0011702502379193902, -0.0011137063847854733, -0.0010571626480668783, -0.0010006189113482833, -0.0009440750582143664, -0.0008875313214957714, -0.0008309875265695155, -0.0007744437316432595, -0.0007178999949246645, -0.0006613561999984086, -0.0006048124050721526, -0.0005482686683535576, -0.0004917248734273016, -0.0004351810785010457, -0.0003786373126786202, -0.00032209354685619473, -0.0002655497519299388, -0.0002090059861075133, -0.0001524622057331726, -9.59184326347895e-05, -3.937465589842759e-05, 1.7169120837934315e-05, 7.371290121227503e-05, 0.0001302566670347005, 0.00018680044740904123, 0.00024334422778338194, 0.0002998879936058074, 0.00035643178853206336, 0.00041297555435448885, 0.0004695193492807448, 0.0005260630859993398, 0.0005826068809255958, 0.0006391506758518517, 0.0006956944707781076, 0.0007522382074967027, 0.0008087820024229586, 0.0008653257973492146, 0.0009218695340678096, 0.0009784132707864046, 0.0010349571239203215, 0.0010915008606389165, 0.0011480445973575115, 0.0012045884504914284, 0.0012611321872100234, 0.0013176760403439403, 0.0013742197770625353, 0.0014307635137811303, 0.0014873073669150472, 0.0015438511036336422, 0.0016003948403522372, 0.001656938693486154, 0.001713482430204749, 0.0017700261669233441, 0.001826570020057261, 0.001883113756775856, 0.001939657493494451, 0.001996201230213046, 0.002052745083346963]}, "gradients/embeds.2.bias": {"_type": "histogram", "values": [1.0, 0.0, 1.0, 2.0, 0.0, 0.0, 1.0, 0.0, 3.0, 1.0, 3.0, 2.0, 1.0, 2.0, 2.0, 3.0, 5.0, 2.0, 10.0, 6.0, 11.0, 18.0, 9.0, 8.0, 59.0, 5.0, 11.0, 7.0, 12.0, 5.0, 8.0, 8.0, 4.0, 4.0, 6.0, 4.0, 5.0, 2.0, 8.0, 4.0, 0.0, 4.0, 0.0, 2.0, 1.0, 1.0, 0.0, 0.0, 0.0, 0.0, 0.0, 1.0, 0.0, 0.0, 0.0, 1.0, 1.0, 1.0, 0.0, 0.0, 0.0, 0.0, 0.0, 1.0], "bins": [-0.0007724644965492189, -0.0007413472048938274, -0.000710229913238436, -0.0006791126215830445, -0.0006479953299276531, -0.0006168780382722616, -0.0005857607466168702, -0.0005546434549614787, -0.0005235261633060873, -0.0004924088716506958, -0.00046129157999530435, -0.0004301742883399129, -0.00039905699668452144, -0.00036793970502913, -0.00033682241337373853, -0.00030570512171834707, -0.0002745878300629556, -0.00024347053840756416, -0.0002123532467521727, -0.00018123595509678125, -0.0001501186634413898, -0.00011900137178599834, -8.788408013060689e-05, -5.6766788475215435e-05, -2.564949681982398e-05, 5.467794835567474e-06, 3.658508649095893e-05, 6.770237814635038e-05, 9.881966980174184e-05, 0.0001299369614571333, 0.00016105425311252475, 0.0001921715447679162, 0.00022328877821564674, 0.0002544060698710382, 0.00028552336152642965, 0.0003166406531818211, 0.00034775794483721256, 0.000378875236492604, 0.00040999252814799547, 0.0004411098198033869, 0.0004722271114587784, 0.0005033444031141698, 0.0005344616947695613, 0.0005655789864249527, 0.0005966962780803442, 0.0006278135697357357, 0.0006589308613911271, 0.0006900481530465186, 0.00072116544470191, 0.0007522827363573015, 0.0007834000280126929, 0.0008145173196680844, 0.0008456346113234758, 0.0008767519029788673, 0.0009078691946342587, 0.0009389864862896502, 0.0009701037779450417, 0.001001221127808094, 0.0010323383612558246, 0.001063455594703555, 0.0010945729445666075, 0.0011256902944296598, 0.0011568075278773904, 0.001187924761325121, 0.0012190421111881733]}, "gradients/embeds.2.weight": {"_type": "histogram", "values": [1.0, 0.0, 2.0, 1.0, 3.0, 3.0, 4.0, 4.0, 4.0, 13.0, 16.0, 27.0, 33.0, 53.0, 51.0, 90.0, 141.0, 198.0, 288.0, 420.0, 561.0, 960.0, 1343.0, 2197.0, 3877.0, 7156.0, 17777.0, 73197.0, 7687.0, 4113.0, 2780.0, 1963.0, 1414.0, 1023.0, 825.0, 584.0, 479.0, 363.0, 282.0, 236.0, 167.0, 145.0, 90.0, 100.0, 64.0, 61.0, 41.0, 47.0, 34.0, 27.0, 24.0, 24.0, 17.0, 14.0, 17.0, 13.0, 10.0, 1.0, 2.0, 0.0, 0.0, 3.0, 1.0, 1.0], "bins": [-0.001435485202819109, -0.0013825342757627368, -0.0013295832322910428, -0.0012766323052346706, -0.0012236812617629766, -0.0011707303347066045, -0.0011177792912349105, -0.0010648283641785383, -0.0010118773207068443, -0.0009589263936504722, -0.0009059754083864391, -0.000853024423122406, -0.0008000734960660338, -0.0007471225108020008, -0.0006941715255379677, -0.0006412205402739346, -0.0005882695550099015, -0.0005353185697458684, -0.00048236758448183537, -0.00042941662832163274, -0.00037646564305759966, -0.0003235146577935666, -0.00027056370163336396, -0.00021761271636933088, -0.0001646617311052978, -0.00011171075311722234, -5.8759775129146874e-05, -5.808797141071409e-06, 4.7142180847004056e-05, 0.00010009315883507952, 0.00015304413682315499, 0.00020599510753527284, 0.0002589460927993059, 0.000311897078063339, 0.0003648480633273721, 0.0004177990194875747, 0.0004707500047516078, 0.0005237009609118104, 0.0005766519461758435, 0.0006296029314398766, 0.0006825539167039096, 0.0007355049019679427, 0.0007884558872319758, 0.0008414068724960089, 0.000894357799552381, 0.0009473087848164141, 0.0010002597700804472, 0.0010532108135521412, 0.0011061617406085134, 0.0011591126676648855, 0.0012120637111365795, 0.0012650146381929517, 0.0013179656816646457, 0.0013709166087210178, 0.0014238676521927118, 0.001476818579249084, 0.0015297695063054562, 0.0015827205497771502, 0.0016356714768335223, 0.0016886225203052163, 0.0017415734473615885, 0.0017945244908332825, 0.0018474754178896546, 0.0019004264613613486, 0.001953377388417721]}, "gradients/embeds.0.bias": {"_type": "histogram", "values": [1.0, 0.0, 0.0, 1.0, 0.0, 0.0, 0.0, 0.0, 0.0, 0.0, 0.0, 1.0, 3.0, 1.0, 1.0, 1.0, 4.0, 4.0, 8.0, 5.0, 6.0, 9.0, 8.0, 11.0, 13.0, 17.0, 16.0, 17.0, 28.0, 108.0, 25.0, 25.0, 16.0, 13.0, 21.0, 8.0, 13.0, 15.0, 18.0, 9.0, 13.0, 10.0, 7.0, 11.0, 7.0, 3.0, 8.0, 3.0, 0.0, 4.0, 1.0, 3.0, 3.0, 1.0, 1.0, 0.0, 3.0, 1.0, 4.0, 0.0, 0.0, 1.0, 1.0, 1.0], "bins": [-0.0005699211033061147, -0.0005508360336534679, -0.000531751022208482, -0.0005126659525558352, -0.0004935809411108494, -0.0004744958714582026, -0.0004554108018055558, -0.0004363257612567395, -0.0004172407207079232, -0.00039815568015910685, -0.00037907063961029053, -0.00035998556995764375, -0.0003409005294088274, -0.0003218154888600111, -0.0003027304192073643, -0.000283645378658548, -0.0002645603381097317, -0.00024547529756091535, -0.0002263902424601838, -0.00020730518735945225, -0.00018822014681063592, -0.0001691351062618196, -0.00015005005116108805, -0.0001309649960603565, -0.00011187995551154017, -9.279490768676624e-05, -7.37098598619923e-05, -5.462481203721836e-05, -3.5539764212444425e-05, -1.6454716387670487e-05, 2.6303314371034503e-06, 2.1715379261877388e-05, 4.080036887899041e-05, 5.988541670376435e-05, 7.897046452853829e-05, 9.805551235331222e-05, 0.00011714056017808616, 0.00013622560072690248, 0.00015531065582763404, 0.0001743957109283656, 0.0001934807514771819, 0.00021256579202599823, 0.00023165084712672979, 0.00025073590222746134, 0.00026982094277627766, 0.000288905983325094, 0.00030799105297774076, 0.0003270760935265571, 0.0003461611340753734, 0.00036524617462418973, 0.00038433121517300606, 0.00040341628482565284, 0.00042250132537446916, 0.0004415863659232855, 0.00046067143557593226, 0.0004797564761247486, 0.0004988415166735649, 0.0005179265863262117, 0.0005370115977711976, 0.0005560966674238443, 0.0005751816788688302, 0.000594266748521477, 0.0006133518181741238, 0.0006324368296191096, 0.0006515218992717564]}, "gradients/embeds.0.weight": {"_type": "histogram", "values": [1.0, 0.0, 0.0, 0.0, 0.0, 0.0, 0.0, 1.0, 0.0, 0.0, 1.0, 1.0, 1.0, 1.0, 0.0, 1.0, 4.0, 7.0, 6.0, 5.0, 19.0, 26.0, 32.0, 53.0, 113.0, 348.0, 1556.0, 8047.0, 72132.0, 285901.0, 20722.0, 3036.0, 678.0, 176.0, 95.0, 45.0, 43.0, 28.0, 20.0, 12.0, 17.0, 14.0, 15.0, 9.0, 9.0, 4.0, 5.0, 5.0, 4.0, 4.0, 4.0, 3.0, 2.0, 0.0, 2.0, 2.0, 0.0, 2.0, 0.0, 1.0, 2.0, 0.0, 0.0, 1.0], "bins": [-0.008039684034883976, -0.007764785084873438, -0.0074898861348629, -0.007214987184852362, -0.006940088234841824, -0.0066651892848312855, -0.006390290334820747, -0.006115391384810209, -0.005840492434799671, -0.005565593484789133, -0.005290694534778595, -0.005015795584768057, -0.004740896634757519, -0.004465997684746981, -0.0041910987347364426, -0.0039161997847259045, -0.0036413008347153664, -0.0033664018847048283, -0.00309150293469429, -0.002816603984683752, -0.002541705034673214, -0.002266806084662676, -0.0019919071346521378, -0.0017170081846415997, -0.0014421092346310616, -0.0011672102846205235, -0.0008923113346099854, -0.0006174123845994473, -0.00034251343458890915, -6.761448457837105e-05, 0.00020728446543216705, 0.00048218341544270515, 0.0007570832967758179, 0.001031982246786356, 0.001306881196796894, 0.0015817801468074322, 0.0018566790968179703, 0.0021315780468285084, 0.0024064769968390465, 0.0026813759468495846, 0.0029562748968601227, 0.0032311738468706608, 0.003506072796881199, 0.003780971746891737, 0.004055870696902275, 0.004330769646912813, 0.004605668596923351, 0.004880567546933889, 0.0051554664969444275, 0.005430365446954966, 0.005705264396965504, 0.005980163346976042, 0.00625506229698658, 0.006529961246997118, 0.006804860197007656, 0.007079759147018194, 0.007354658097028732, 0.00762955704703927, 0.007904455997049809, 0.008179355412721634, 0.008454253897070885, 0.008729152381420135, 0.009004051797091961, 0.009278951212763786, 0.009553849697113037]}, "num_of_test_examples": 0, "test_loss": 3.077599219977856e-05, "_wandb": {"runtime": 39}}