{"num_of_examples": 2320, "train_loss": 7.767842835164629e-05, "_timestamp": 1716164999.3964908, "_runtime": 633.7415359020233, "_step": 1439, "gradients/output.bias": {"_type": "histogram", "values": [1.0], "bins": [-0.005798332393169403, -0.005798332393169403]}, "gradients/output.weight": {"_type": "histogram", "values": [1.0, 0.0, 0.0, 0.0, 0.0, 0.0, 0.0, 1.0, 1.0, 1.0, 0.0, 0.0, 3.0, 0.0, 1.0, 0.0, 0.0, 0.0, 4.0, 1.0, 0.0, 3.0, 0.0, 0.0, 2.0, 1.0, 1.0, 0.0, 3.0, 1.0, 1.0, 0.0, 2.0, 2.0, 3.0, 3.0, 4.0, 5.0, 3.0, 2.0, 0.0, 5.0, 2.0, 3.0, 4.0, 4.0, 1.0, 3.0, 2.0, 5.0, 5.0, 5.0, 2.0, 9.0, 7.0, 4.0, 10.0, 11.0, 12.0, 103.0, 6.0, 3.0, 0.0, 1.0], "bins": [-0.0046484507620334625, -0.004569980315864086, -0.004491510335355997, -0.004413039889186621, -0.004334569443017244, -0.004256099462509155, -0.004177629016339779, -0.0040991585701704025, -0.0040206885896623135, -0.003942218143492937, -0.0038637479301542044, -0.003785277483984828, -0.0037068072706460953, -0.0036283370573073626, -0.003549866611137986, -0.0034713963977992535, -0.003392925951629877, -0.0033144557382911444, -0.0032359855249524117, -0.0031575150787830353, -0.0030790448654443026, -0.00300057465210557, -0.0029221042059361935, -0.0028436339925974607, -0.002765163779258728, -0.0026866933330893517, -0.002608223119750619, -0.002529752906411886, -0.00245128246024251, -0.002372812246903777, -0.0022943420335650444, -0.002215871587395668, -0.0021374013740569353, -0.0020589311607182026, -0.0019804607145488262, -0.0019019905012100935, -0.0018235202878713608, -0.0017450499581173062, -0.0016665796283632517, -0.0015881092986091971, -0.0015096390852704644, -0.0014311687555164099, -0.0013526984257623553, -0.0012742282124236226, -0.001195757882669568, -0.0011172875529155135, -0.0010388173395767808, -0.0009603470098227262, -0.0008818766800686717, -0.0008034064085222781, -0.0007249361369758844, -0.0006464658072218299, -0.0005679955356754363, -0.0004895252641290426, -0.0004110549343749881, -0.00033258466282859445, -0.00025411436217837036, -0.00017564406152814627, -9.71737754298374e-05, -1.870348205557093e-05, 5.9766811318695545e-05, 0.00013823711196891963, 0.0002167073980672285, 0.00029517768416553736, 0.00037364798481576145]}, "gradients/linearlayers.4.0.bias": {"_type": "histogram", "values": [4.0, 3.0, 5.0, 1.0, 1.0, 3.0, 4.0, 1.0, 2.0, 4.0, 2.0, 2.0, 5.0, 3.0, 2.0, 2.0, 4.0, 5.0, 1.0, 5.0, 3.0, 3.0, 4.0, 4.0, 1.0, 3.0, 4.0, 10.0, 1.0, 95.0, 7.0, 5.0, 4.0, 2.0, 3.0, 5.0, 3.0, 2.0, 3.0, 3.0, 6.0, 3.0, 2.0, 0.0, 3.0, 1.0, 1.0, 2.0, 2.0, 0.0, 0.0, 1.0, 3.0, 0.0, 2.0, 1.0, 2.0, 0.0, 0.0, 0.0, 0.0, 1.0, 1.0, 1.0], "bins": [-0.0003749624011106789, -0.000362119433702901, -0.00034927643719129264, -0.00033643346978351474, -0.0003235904732719064, -0.00031074750586412847, -0.00029790453845635056, -0.0002850615419447422, -0.0002722185745369643, -0.0002593756071291864, -0.00024653261061757803, -0.00023368964320980012, -0.000220846661250107, -0.00020800367929041386, -0.00019516071188263595, -0.00018231772992294282, -0.00016947474796324968, -0.00015663176600355655, -0.00014378878404386342, -0.0001309458166360855, -0.00011810283467639238, -0.00010525985271669924, -9.241687803296372e-05, -7.95739033492282e-05, -6.673092138953507e-05, -5.388794306782074e-05, -4.1044964746106416e-05, -2.820198642439209e-05, -1.5359008102677763e-05, -2.5160297809634358e-06, 1.0326948540750891e-05, 2.3169926862465218e-05, 3.601287608034909e-05, 4.8855854402063414e-05, 6.169883272377774e-05, 7.454180740751326e-05, 8.73847893672064e-05, 0.00010022777132689953, 0.00011307074601063505, 0.00012591372069437057, 0.0001387567026540637, 0.00015159968461375684, 0.00016444266657344997, 0.00017728563398122787, 0.000190128615940921, 0.00020297159790061414, 0.00021581456530839205, 0.00022865754726808518, 0.00024150052922777832, 0.0002543434966355562, 0.0002671864931471646, 0.0002800294605549425, 0.0002928724279627204, 0.00030571542447432876, 0.00031855839188210666, 0.000331401388393715, 0.00034424435580149293, 0.00035708732320927083, 0.0003699303197208792, 0.0003827732871286571, 0.00039561628364026546, 0.00040845925104804337, 0.0004213022184558213, 0.00043414521496742964, 0.00044698818237520754]}, "gradients/linearlayers.4.0.weight": {"_type": "histogram", "values": [4.0, 3.0, 3.0, 3.0, 0.0, 3.0, 4.0, 2.0, 1.0, 6.0, 11.0, 13.0, 27.0, 38.0, 30.0, 41.0, 56.0, 78.0, 133.0, 181.0, 227.0, 250.0, 333.0, 486.0, 616.0, 813.0, 1053.0, 1458.0, 2115.0, 4736.0, 46108.0, 2323.0, 1333.0, 819.0, 604.0, 422.0, 306.0, 235.0, 156.0, 119.0, 99.0, 75.0, 51.0, 36.0, 31.0, 27.0, 19.0, 9.0, 8.0, 9.0, 4.0, 6.0, 0.0, 3.0, 2.0, 2.0, 1.0, 2.0, 0.0, 0.0, 1.0, 0.0, 0.0, 2.0], "bins": [-0.00044310130761004984, -0.0004284422902856022, -0.00041378330206498504, -0.0003991242847405374, -0.0003844652674160898, -0.00036980625009164214, -0.0003551472327671945, -0.00034048824454657733, -0.0003258292272221297, -0.00031117020989768207, -0.0002965112216770649, -0.00028185220435261726, -0.00026719318702816963, -0.000252534169703722, -0.0002378751669311896, -0.0002232161641586572, -0.00020855714683420956, -0.00019389812950976193, -0.00017923912673722953, -0.00016458012396469712, -0.0001499211066402495, -0.00013526208931580186, -0.00012060308654326946, -0.00010594407649477944, -9.128506644628942e-05, -7.66260563977994e-05, -6.196704634930938e-05, -4.730803630081937e-05, -3.264902625232935e-05, -1.7990016203839332e-05, -3.3310061553493142e-06, 1.1328003893140703e-05, 2.5986984837800264e-05, 4.064599488629028e-05, 5.53050049347803e-05, 6.996401498327032e-05, 8.462302503176033e-05, 9.928203508025035e-05, 0.00011394104512874037, 0.00012860004790127277, 0.0001432590652257204, 0.00015791808255016804, 0.00017257708532270044, 0.00018723608809523284, 0.00020189510541968048, 0.0002165541227441281, 0.0002312131255166605, 0.0002458721282891929, 0.00026053114561364055, 0.0002751901629380882, 0.0002898491802625358, 0.000304508168483153, 0.0003191671858076006, 0.00033382620313204825, 0.0003484851913526654, 0.00036314420867711306, 0.0003778032260015607, 0.0003924622433260083, 0.00040712126065045595, 0.0004217802488710731, 0.00043643926619552076, 0.0004510982835199684, 0.00046575727174058557, 0.0004804162890650332, 0.0004950753063894808]}, "gradients/linearlayers.3.0.bias": {"_type": "histogram", "values": [2.0, 1.0, 1.0, 1.0, 2.0, 3.0, 5.0, 3.0, 1.0, 3.0, 1.0, 1.0, 3.0, 6.0, 2.0, 8.0, 0.0, 6.0, 4.0, 3.0, 13.0, 7.0, 12.0, 2.0, 9.0, 4.0, 9.0, 90.0, 8.0, 8.0, 5.0, 4.0, 2.0, 2.0, 4.0, 2.0, 3.0, 2.0, 4.0, 1.0, 1.0, 0.0, 3.0, 0.0, 1.0, 0.0, 0.0, 0.0, 0.0, 2.0, 0.0, 0.0, 0.0, 0.0, 1.0, 0.0, 0.0, 0.0, 0.0, 0.0, 0.0, 0.0, 0.0, 1.0], "bins": [-0.0004928517737425864, -0.0004748162464238703, -0.0004567806900013238, -0.00043874516268260777, -0.00042070960626006126, -0.0004026740789413452, -0.0003846385225187987, -0.00036660299520008266, -0.00034856743877753615, -0.0003305319114588201, -0.00031249638414010406, -0.00029446082771755755, -0.0002764253003988415, -0.000258389743976295, -0.00024035421665757895, -0.00022231867478694767, -0.0002042831329163164, -0.0001862475910456851, -0.00016821204917505383, -0.00015017650730442256, -0.00013214096543379128, -0.00011410543083911762, -9.606989624444395e-05, -7.803435437381268e-05, -5.99988125031814e-05, -4.196327063255012e-05, -2.392773239989765e-05, -5.892192348255776e-06, 1.2143347703386098e-05, 3.0178887755027972e-05, 4.8214427806669846e-05, 6.624996603932232e-05, 8.42855079099536e-05, 0.00010232104978058487, 0.00012035659165121615, 0.00013839213352184743, 0.0001564276753924787, 0.00017446320271119475, 0.00019249874458182603, 0.0002105342864524573, 0.00022856982832308859, 0.00024660537019371986, 0.0002646408975124359, 0.0002826764539349824, 0.00030071198125369847, 0.000318747537676245, 0.000336783064994961, 0.00035481862141750753, 0.0003728541487362236, 0.00039088967605493963, 0.00040892523247748613, 0.0004269607597962022, 0.0004449963162187487, 0.00046303184353746474, 0.00048106739996001124, 0.0004991029272787273, 0.0005171384545974433, 0.0005351739819161594, 0.0005532095674425364, 0.0005712450947612524, 0.0005892806220799685, 0.0006073161493986845, 0.0006253517349250615, 0.0006433872622437775, 0.0006614227895624936]}, "gradients/linearlayers.3.0.weight": {"_type": "histogram", "values": [2.0, 0.0, 1.0, 3.0, 2.0, 3.0, 3.0, 1.0, 7.0, 6.0, 5.0, 14.0, 23.0, 36.0, 68.0, 90.0, 111.0, 149.0, 150.0, 193.0, 283.0, 385.0, 509.0, 727.0, 1129.0, 1677.0, 2729.0, 6738.0, 46202.0, 1919.0, 830.0, 478.0, 307.0, 226.0, 155.0, 98.0, 62.0, 47.0, 45.0, 27.0, 19.0, 13.0, 13.0, 8.0, 12.0, 8.0, 6.0, 3.0, 4.0, 3.0, 2.0, 2.0, 0.0, 1.0, 0.0, 0.0, 0.0, 1.0, 0.0, 0.0, 0.0, 0.0, 0.0, 1.0], "bins": [-0.0006281505338847637, -0.0006058883736841381, -0.0005836262134835124, -0.0005613641114905477, -0.000539101951289922, -0.0005168397910892963, -0.0004945776308886707, -0.0004723154997918755, -0.0004500533395912498, -0.00042779117939062417, -0.00040552904829382896, -0.0003832668880932033, -0.00036100472789257765, -0.00033874259679578245, -0.0003164804365951568, -0.0002942183054983616, -0.00027195614529773593, -0.00024969398509711027, -0.00022743185400031507, -0.0002051696937996894, -0.00018290754815097898, -0.00016064540250226855, -0.0001383832423016429, -0.00011612109665293247, -9.385895100422204e-05, -7.15968053555116e-05, -4.933465243084356e-05, -2.7072503144154325e-05, -4.810353857465088e-06, 1.745179542922415e-05, 3.9713944715913385e-05, 6.197609764058143e-05, 8.423818508163095e-05, 0.00010650033073034137, 0.0001287624763790518, 0.00015102463657967746, 0.0001732867822283879, 0.00019554892787709832, 0.00021781108807772398, 0.0002400732337264344, 0.00026233537937514484, 0.0002845975395757705, 0.0003068596706725657, 0.00032912183087319136, 0.000351383991073817, 0.0003736461221706122, 0.0003959082823712379, 0.0004181704134680331, 0.00044043257366865873, 0.0004626947338692844, 0.0004849568649660796, 0.0005072189960628748, 0.0005294811562635005, 0.0005517433164641261, 0.0005740054766647518, 0.0005962676368653774, 0.0006185297388583422, 0.0006407918990589678, 0.0006630540592595935, 0.0006853162194602191, 0.0007075783796608448, 0.0007298405398614705, 0.0007521026418544352, 0.0007743648020550609, 0.0007966269622556865]}, "gradients/linearlayers.2.0.bias": {"_type": "histogram", "values": [2.0, 0.0, 1.0, 1.0, 4.0, 2.0, 2.0, 5.0, 5.0, 3.0, 3.0, 1.0, 4.0, 4.0, 4.0, 10.0, 10.0, 8.0, 13.0, 17.0, 12.0, 81.0, 8.0, 12.0, 6.0, 9.0, 7.0, 7.0, 1.0, 4.0, 3.0, 0.0, 1.0, 1.0, 1.0, 0.0, 0.0, 0.0, 0.0, 0.0, 1.0, 1.0, 0.0, 0.0, 0.0, 0.0, 0.0, 0.0, 1.0, 0.0, 0.0, 0.0, 0.0, 0.0, 0.0, 0.0, 0.0, 0.0, 0.0, 0.0, 0.0, 0.0, 0.0, 1.0], "bins": [-0.0005247000372037292, -0.000499861256685108, -0.0004750225052703172, -0.000450183724751696, -0.00042534497333690524, -0.00040050619281828403, -0.0003756674414034933, -0.0003508286608848721, -0.00032598990947008133, -0.0003011511289514601, -0.0002763123484328389, -0.00025147359701804817, -0.00022663481649942696, -0.00020179605053272098, -0.000176957284566015, -0.00015211851859930903, -0.00012727975263260305, -0.00010244098666589707, -7.76022206991911e-05, -5.27634474565275e-05, -2.7924681489821523e-05, -3.085913704126142e-06, 2.175285408156924e-05, 4.6591623686254025e-05, 7.143038965296e-05, 9.626915561966598e-05, 0.00012110792158637196, 0.00014594668755307794, 0.00017078546807169914, 0.00019562423403840512, 0.0002204630000051111, 0.00024530175141990185, 0.00027014053193852305, 0.00029497931245714426, 0.000319818063871935, 0.0003446568443905562, 0.00036949559580534697, 0.00039433437632396817, 0.0004191731277387589, 0.00044401190825738013, 0.0004688506596721709, 0.0004936894401907921, 0.0005185282207094133, 0.0005433670012280345, 0.0005682057235389948, 0.000593044504057616, 0.0006178832845762372, 0.0006427220650948584, 0.0006675608456134796, 0.0006923995679244399, 0.0007172383484430611, 0.0007420771289616823, 0.0007669159094803035, 0.0007917546317912638, 0.000816593412309885, 0.0008414321928285062, 0.0008662709733471274, 0.0008911097538657486, 0.0009159484761767089, 0.0009407872566953301, 0.0009656260372139513, 0.0009904648177325726, 0.0010153035400435328, 0.001040142378769815, 0.0010649811010807753]}, "gradients/linearlayers.2.0.weight": {"_type": "histogram", "values": [2.0, 1.0, 1.0, 1.0, 5.0, 3.0, 9.0, 10.0, 16.0, 32.0, 49.0, 60.0, 122.0, 183.0, 231.0, 368.0, 478.0, 796.0, 1298.0, 2410.0, 6993.0, 47105.0, 2936.0, 1100.0, 523.0, 284.0, 158.0, 89.0, 61.0, 41.0, 25.0, 22.0, 30.0, 15.0, 16.0, 4.0, 12.0, 6.0, 5.0, 5.0, 7.0, 3.0, 2.0, 1.0, 3.0, 5.0, 2.0, 1.0, 3.0, 0.0, 1.0, 0.0, 1.0, 0.0, 1.0, 0.0, 0.0, 0.0, 0.0, 0.0, 0.0, 0.0, 0.0, 1.0], "bins": [-0.0007189197349362075, -0.0006851329235360026, -0.0006513461121357977, -0.0006175592425279319, -0.000583772431127727, -0.0005499856197275221, -0.0005161988083273172, -0.0004824119678232819, -0.000448625156423077, -0.0004148383450228721, -0.00038105150451883674, -0.00034726469311863184, -0.00031347788171842694, -0.0002796910412143916, -0.0002459042298141867, -0.00021211740386206657, -0.00017833057790994644, -0.00014454375195782632, -0.0001107569332816638, -7.69701146055013e-05, -4.318328865338117e-05, -9.39646633923985e-06, 2.4390355974901468e-05, 5.8177178289042786e-05, 9.19640006031841e-05, 0.00012575082655530423, 0.00015953765250742435, 0.00019332446390762925, 0.00022711128985974938, 0.0002608981158118695, 0.0002946849272120744, 0.00032847176771610975, 0.00036225863732397556, 0.00039604544872418046, 0.0004298322892282158, 0.0004636191006284207, 0.0004974059411324561, 0.000531192752532661, 0.0005649795639328659, 0.0005987663753330708, 0.0006325532449409366, 0.0006663400563411415, 0.0007001268677413464, 0.0007339136791415513, 0.0007677004905417562, 0.000801487301941961, 0.0008352741715498269, 0.0008690609829500318, 0.0009028477943502367, 0.0009366346057504416, 0.0009704214171506464, 0.0010042082285508513, 0.0010379950981587172, 0.0010717818513512611, 0.001105568720959127, 0.0011393555905669928, 0.0011731423437595367, 0.0012069292133674026, 0.0012407159665599465, 0.0012745028361678123, 0.0013082897057756782, 0.0013420764589682221, 0.001375863328576088, 0.001409650081768632, 0.0014434369513764977]}, "gradients/linearlayers.1.0.bias": {"_type": "histogram", "values": [1.0, 0.0, 0.0, 0.0, 0.0, 0.0, 0.0, 0.0, 0.0, 0.0, 1.0, 0.0, 0.0, 0.0, 1.0, 0.0, 2.0, 4.0, 0.0, 2.0, 2.0, 7.0, 3.0, 3.0, 4.0, 5.0, 8.0, 5.0, 6.0, 9.0, 9.0, 5.0, 10.0, 5.0, 8.0, 80.0, 15.0, 7.0, 8.0, 7.0, 11.0, 4.0, 2.0, 5.0, 4.0, 2.0, 3.0, 0.0, 1.0, 0.0, 0.0, 1.0, 1.0, 0.0, 3.0, 0.0, 0.0, 0.0, 1.0, 0.0, 0.0, 0.0, 0.0, 1.0], "bins": [-0.0007794046541675925, -0.000757562811486423, -0.0007357209688052535, -0.0007138790679164231, -0.0006920372252352536, -0.0006701953825540841, -0.0006483534816652536, -0.0006265116389840841, -0.0006046697963029146, -0.0005828279536217451, -0.0005609861109405756, -0.0005391442100517452, -0.0005173023673705757, -0.0004954605246894062, -0.0004736186529044062, -0.0004517767811194062, -0.0004299349384382367, -0.0004080930957570672, -0.00038625122397206724, -0.00036440935218706727, -0.00034256750950589776, -0.00032072566682472825, -0.0002988837950397283, -0.0002770419232547283, -0.0002552000805735588, -0.00023335822334047407, -0.00021151636610738933, -0.0001896745088743046, -0.00016783265164121985, -0.00014599079440813512, -0.00012414893717505038, -0.00010230707994196564, -8.04652227088809e-05, -5.862336547579616e-05, -3.6781508242711425e-05, -1.4939651009626687e-05, 6.902206223458052e-06, 2.874406345654279e-05, 5.058592068962753e-05, 7.242777792271227e-05, 9.4269635155797e-05, 0.00011611149238888174, 0.00013795334962196648, 0.00015979520685505122, 0.00018163706408813596, 0.0002034789213212207, 0.00022532077855430543, 0.0002471626503393054, 0.0002690044930204749, 0.0002908463357016444, 0.0003126882074866444, 0.00033453007927164435, 0.00035637192195281386, 0.0003782137646339834, 0.00040005563641898334, 0.0004218975082039833, 0.0004437393508851528, 0.0004655811935663223, 0.0004874230653513223, 0.0005092649371363223, 0.0005311067798174918, 0.0005529486224986613, 0.0005747905233874917, 0.0005966323660686612, 0.0006184742087498307]}, "gradients/linearlayers.1.0.weight": {"_type": "histogram", "values": [1.0, 0.0, 1.0, 0.0, 0.0, 0.0, 0.0, 1.0, 1.0, 1.0, 1.0, 1.0, 2.0, 1.0, 0.0, 5.0, 12.0, 7.0, 15.0, 19.0, 11.0, 23.0, 34.0, 47.0, 54.0, 87.0, 151.0, 194.0, 275.0, 380.0, 470.0, 694.0, 969.0, 1411.0, 1959.0, 3274.0, 41028.0, 9076.0, 2212.0, 1191.0, 652.0, 436.0, 235.0, 139.0, 102.0, 92.0, 80.0, 57.0, 34.0, 26.0, 21.0, 16.0, 10.0, 6.0, 6.0, 8.0, 2.0, 2.0, 0.0, 2.0, 1.0, 0.0, 0.0, 1.0], "bins": [-0.0010110189905390143, -0.0009836556855589151, -0.000956292322371155, -0.0009289290173910558, -0.0009015656542032957, -0.0008742023492231965, -0.0008468390442430973, -0.0008194756810553372, -0.000792112376075238, -0.0007647490710951388, -0.0007373857079073787, -0.0007100224029272795, -0.0006826590979471803, -0.0006552957347594202, -0.000627932429779321, -0.0006005690665915608, -0.0005732057616114616, -0.0005458424566313624, -0.0005184790934436023, -0.0004911157884635031, -0.00046375245437957346, -0.0004363891202956438, -0.0004090258153155446, -0.00038166248123161495, -0.0003542991471476853, -0.00032693581306375563, -0.000299572478979826, -0.00027220917399972677, -0.0002448458399157971, -0.00021748250583186746, -0.00019011918629985303, -0.0001627558667678386, -0.00013539253268390894, -0.0001080292058759369, -8.066587906796485e-05, -5.330255225999281e-05, -2.5939225452020764e-05, 1.4241013559512794e-06, 2.8787428163923323e-05, 5.615075497189537e-05, 8.351408177986741e-05, 0.00011087740858783945, 0.0001382407353958115, 0.00016560405492782593, 0.00019296738901175559, 0.00022033072309568524, 0.00024769402807578444, 0.0002750573621597141, 0.00030242069624364376, 0.0003297840303275734, 0.0003571473644115031, 0.0003845106693916023, 0.00041187400347553194, 0.0004392373375594616, 0.0004666006425395608, 0.0004939640057273209, 0.0005213273107074201, 0.0005486906156875193, 0.0005760539788752794, 0.0006034172838553786, 0.0006307805888354778, 0.0006581439520232379, 0.0006855072570033371, 0.0007128706201910973, 0.0007402339251711965]}, "gradients/linearlayers.0.0.bias": {"_type": "histogram", "values": [2.0, 0.0, 1.0, 1.0, 1.0, 0.0, 0.0, 2.0, 1.0, 0.0, 0.0, 3.0, 1.0, 4.0, 1.0, 2.0, 4.0, 1.0, 1.0, 4.0, 8.0, 3.0, 5.0, 3.0, 6.0, 4.0, 4.0, 8.0, 12.0, 8.0, 13.0, 12.0, 64.0, 12.0, 10.0, 4.0, 9.0, 7.0, 4.0, 5.0, 4.0, 4.0, 3.0, 3.0, 4.0, 3.0, 1.0, 0.0, 0.0, 0.0, 1.0, 1.0, 0.0, 0.0, 0.0, 0.0, 0.0, 1.0, 0.0, 0.0, 0.0, 0.0, 0.0, 1.0], "bins": [-0.0005638919537886977, -0.0005463099223561585, -0.0005287279491312802, -0.000511145917698741, -0.0004935639444738626, -0.0004759819130413234, -0.00045839991071261466, -0.0004408179083839059, -0.00042323587695136666, -0.0004056538746226579, -0.00038807187229394913, -0.00037048986996524036, -0.0003529078676365316, -0.0003353258653078228, -0.0003177438338752836, -0.00030016183154657483, -0.00028257982921786606, -0.0002649978268891573, -0.00024741582456044853, -0.00022983380767982453, -0.00021225179079920053, -0.00019466978847049177, -0.000177087786141783, -0.000159505769261159, -0.00014192376693245023, -0.00012434176460374147, -0.00010675974772311747, -8.91777453944087e-05, -7.159573578974232e-05, -5.401372618507594e-05, -3.6431720218388364e-05, -1.8849712432711385e-05, -1.2677046470344067e-06, 1.6314303138642572e-05, 3.389631092431955e-05, 5.1478316891007125e-05, 6.906032649567351e-05, 8.664233610033989e-05, 0.00010422433842904866, 0.00012180634803371504, 0.00013938835763838142, 0.0001569703599670902, 0.00017455237684771419, 0.00019213437917642295, 0.00020971638150513172, 0.00022729839838575572, 0.0002448804152663797, 0.0002624624175950885, 0.00028004441992379725, 0.000297626422252506, 0.0003152084245812148, 0.000332790456013754, 0.0003503724583424628, 0.00036795446067117155, 0.0003855364629998803, 0.0004031184653285891, 0.00042070046765729785, 0.0004382824990898371, 0.00045586450141854584, 0.0004734465037472546, 0.0004910285351797938, 0.0005086105084046721, 0.0005261925398372114, 0.0005437745130620897, 0.0005613565444946289]}, "gradients/linearlayers.0.0.weight": {"_type": "histogram", "values": [2.0, 3.0, 2.0, 4.0, 2.0, 6.0, 8.0, 7.0, 8.0, 11.0, 13.0, 14.0, 31.0, 18.0, 33.0, 48.0, 62.0, 64.0, 85.0, 103.0, 123.0, 138.0, 196.0, 242.0, 304.0, 402.0, 492.0, 673.0, 995.0, 1594.0, 3308.0, 38925.0, 11718.0, 2638.0, 1159.0, 601.0, 420.0, 298.0, 226.0, 166.0, 97.0, 76.0, 60.0, 44.0, 24.0, 16.0, 12.0, 10.0, 13.0, 10.0, 5.0, 5.0, 5.0, 3.0, 2.0, 1.0, 3.0, 1.0, 3.0, 0.0, 0.0, 2.0, 1.0, 1.0], "bins": [-0.0008707179804332554, -0.0008434940245933831, -0.0008162700687535107, -0.0007890461129136384, -0.000761822157073766, -0.0007345982012338936, -0.0007073742453940213, -0.0006801502895541489, -0.0006529263919219375, -0.0006257024360820651, -0.0005984784802421927, -0.0005712545244023204, -0.000544030568562448, -0.0005168066127225757, -0.0004895826568827033, -0.00046235870104283094, -0.0004351347452029586, -0.0004079107893630862, -0.00038068683352321386, -0.0003534628776833415, -0.00032623892184346914, -0.00029901499510742724, -0.0002717910392675549, -0.0002445670834276825, -0.00021734312758781016, -0.0001901191717479378, -0.00016289521590806544, -0.0001356712746201083, -0.00010844731878023595, -8.122336294036359e-05, -5.399941437644884e-05, -2.6775462174555287e-05, 4.484318196773529e-07, 2.7672384021570906e-05, 5.489633622346446e-05, 8.21202847873792e-05, 0.00010934424062725157, 0.00013656819646712393, 0.00016379213775508106, 0.00019101609359495342, 0.00021824004943482578, 0.00024546400527469814, 0.0002726879611145705, 0.00029991191695444286, 0.00032713584369048476, 0.0003543597995303571, 0.0003815837553702295, 0.00040880771121010184, 0.0004360316670499742, 0.00046325562288984656, 0.0004904795787297189, 0.0005177035345695913, 0.0005449274904094636, 0.000572151446249336, 0.0005993754020892084, 0.0006265993579290807, 0.0006538232555612922, 0.0006810472114011645, 0.0007082711672410369, 0.0007354951230809093, 0.0007627190789207816, 0.000789943034760654, 0.0008171669906005263, 0.0008443909464403987, 0.000871614902280271]}, "gradients/embeds.2.bias": {"_type": "histogram", "values": [1.0, 0.0, 0.0, 0.0, 0.0, 0.0, 0.0, 0.0, 0.0, 0.0, 0.0, 0.0, 0.0, 0.0, 0.0, 0.0, 0.0, 0.0, 0.0, 0.0, 0.0, 1.0, 1.0, 1.0, 0.0, 1.0, 3.0, 1.0, 2.0, 2.0, 2.0, 2.0, 3.0, 4.0, 2.0, 6.0, 4.0, 8.0, 7.0, 7.0, 14.0, 12.0, 17.0, 10.0, 64.0, 21.0, 7.0, 9.0, 8.0, 8.0, 6.0, 3.0, 4.0, 3.0, 2.0, 5.0, 1.0, 2.0, 0.0, 0.0, 1.0, 0.0, 0.0, 1.0], "bins": [-0.0008252461557276547, -0.0008068239549174905, -0.0007884016958996654, -0.0007699794950895011, -0.000751557236071676, -0.0007331350352615118, -0.0007147127762436867, -0.0006962905754335225, -0.0006778683746233582, -0.0006594461156055331, -0.0006410239147953689, -0.0006226016557775438, -0.0006041794549673796, -0.0005857571959495544, -0.0005673349951393902, -0.0005489127361215651, -0.0005304905353114009, -0.0005120683345012367, -0.0004936460754834116, -0.0004752238455694169, -0.0004568016156554222, -0.000438379414845258, -0.00041995718493126333, -0.00040153495501726866, -0.000383112725103274, -0.0003646904951892793, -0.00034626826527528465, -0.00032784603536129, -0.00030942383455112576, -0.0002910016046371311, -0.0002725793747231364, -0.00025415714480914176, -0.000235734973102808, -0.00021731274318881333, -0.00019889051327481866, -0.00018046829791273922, -0.00016204606799874455, -0.00014362383808474988, -0.00012520162272267044, -0.00010677939280867577, -8.83571628946811e-05, -6.993493298068643e-05, -5.151271034264937e-05, -3.309048406663351e-05, -1.4668257790617645e-05, 3.753968485398218e-06, 2.217619476141408e-05, 4.0598421037429944e-05, 5.9020647313445807e-05, 7.744287722744048e-05, 9.586509986547753e-05, 0.00011428732250351459, 0.00013270955241750926, 0.00015113178233150393, 0.00016955399769358337, 0.00018797622760757804, 0.0002063984575215727, 0.00022482068743556738, 0.00024324291734956205, 0.0002616651472635567, 0.00028008734807372093, 0.0002985095779877156, 0.00031693180790171027, 0.00033535403781570494, 0.0003537762677296996]}, "gradients/embeds.2.weight": {"_type": "histogram", "values": [1.0, 0.0, 1.0, 0.0, 1.0, 0.0, 2.0, 3.0, 0.0, 0.0, 0.0, 1.0, 1.0, 3.0, 3.0, 5.0, 5.0, 3.0, 4.0, 7.0, 6.0, 2.0, 8.0, 14.0, 19.0, 24.0, 31.0, 39.0, 46.0, 64.0, 85.0, 128.0, 181.0, 213.0, 320.0, 457.0, 681.0, 975.0, 1589.0, 2508.0, 4314.0, 8229.0, 22879.0, 74894.0, 6938.0, 2956.0, 1422.0, 792.0, 467.0, 293.0, 167.0, 102.0, 78.0, 36.0, 27.0, 17.0, 16.0, 7.0, 4.0, 3.0, 0.0, 0.0, 0.0, 1.0], "bins": [-0.0012815018417313695, -0.0012517778668552637, -0.0012220540083944798, -0.001192330033518374, -0.0011626060586422682, -0.0011328822001814842, -0.0011031582253053784, -0.0010734343668445945, -0.0010437103919684887, -0.001013986417092383, -0.000984262558631599, -0.0009545385837554932, -0.0009248146670870483, -0.0008950906922109425, -0.0008653667755424976, -0.0008356428588740528, -0.0008059189422056079, -0.0007761949673295021, -0.0007464710506610572, -0.0007167471339926124, -0.0006870231591165066, -0.0006572992424480617, -0.0006275753257796168, -0.000597851409111172, -0.0005681274342350662, -0.0005384035175666213, -0.0005086796008981764, -0.0004789556551259011, -0.0004492317093536258, -0.0004195077926851809, -0.0003897838469129056, -0.0003600599302444607, -0.0003303359844721854, -0.00030061203869991004, -0.00027088812203146517, -0.00024116419081110507, -0.00021144025959074497, -0.00018171631381846964, -0.00015199238259810954, -0.00012226845137774944, -9.254452015738934e-05, -6.282058893702924e-05, -3.3096654078690335e-05, -3.3727210393408313e-06, 2.6351212000008672e-05, 5.607514322036877e-05, 8.579908171668649e-05, 0.00011552301293704659, 0.0001452469441574067, 0.0001749708753777668, 0.0002046948065981269, 0.000234418737818487, 0.0002641426690388471, 0.0002938666148111224, 0.0003235905314795673, 0.0003533144772518426, 0.00038303842302411795, 0.0004127623396925628, 0.00044248628546483815, 0.000472210202133283, 0.0005019341479055583, 0.0005316580645740032, 0.0005613819812424481, 0.0005911059561185539, 0.0006208298727869987]}, "gradients/embeds.0.bias": {"_type": "histogram", "values": [1.0, 0.0, 0.0, 2.0, 0.0, 1.0, 1.0, 1.0, 1.0, 1.0, 2.0, 1.0, 2.0, 9.0, 3.0, 1.0, 5.0, 4.0, 9.0, 9.0, 13.0, 7.0, 9.0, 12.0, 9.0, 13.0, 16.0, 14.0, 23.0, 24.0, 18.0, 25.0, 37.0, 71.0, 22.0, 17.0, 20.0, 21.0, 13.0, 15.0, 11.0, 6.0, 9.0, 8.0, 4.0, 1.0, 3.0, 3.0, 2.0, 2.0, 3.0, 2.0, 0.0, 0.0, 1.0, 1.0, 0.0, 0.0, 0.0, 1.0, 0.0, 1.0, 0.0, 2.0], "bins": [-0.00027224249788559973, -0.00026399322086945176, -0.00025574391474947333, -0.00024749463773332536, -0.0002392453607171774, -0.00023099608370102942, -0.00022274679213296622, -0.00021449750056490302, -0.00020624822354875505, -0.00019799894653260708, -0.00018974965496454388, -0.00018150036339648068, -0.0001732510863803327, -0.00016500180936418474, -0.00015675251779612154, -0.00014850322622805834, -0.00014025394921191037, -0.0001320046721957624, -0.0001237553806276992, -0.00011550609633559361, -0.00010725681204348803, -9.900752775138244e-05, -9.075824345927685e-05, -8.250895916717127e-05, -7.425967487506568e-05, -6.60103905829601e-05, -5.7761106290854514e-05, -4.951182199874893e-05, -4.126253770664334e-05, -3.301325341453776e-05, -2.4763969122432172e-05, -1.6514684830326587e-05, -8.265371434390545e-06, -1.6087142284959555e-08, 8.233197149820626e-06, 1.648248144192621e-05, 2.4731765734031796e-05, 3.298105002613738e-05, 4.123033431824297e-05, 4.947961861034855e-05, 5.772890290245414e-05, 6.597818719455972e-05, 7.422747148666531e-05, 8.24767557787709e-05, 9.072604007087648e-05, 9.897532436298206e-05, 0.00010722460865508765, 0.00011547389294719324, 0.00012372317723929882, 0.0001319724542554468, 0.00014022174582351, 0.0001484710373915732, 0.00015672031440772116, 0.00016496959142386913, 0.00017321888299193233, 0.00018146817455999553, 0.0001897174515761435, 0.00019796672859229147, 0.00020621602016035467, 0.00021446531172841787, 0.00022271458874456584, 0.00023096386576071382, 0.00023921315732877702, 0.0002474624488968402, 0.0002557117259129882]}, "gradients/embeds.0.weight": {"_type": "histogram", "values": [2.0, 1.0, 1.0, 1.0, 1.0, 4.0, 2.0, 2.0, 2.0, 3.0, 4.0, 1.0, 8.0, 10.0, 9.0, 10.0, 8.0, 15.0, 12.0, 21.0, 20.0, 21.0, 19.0, 31.0, 38.0, 55.0, 70.0, 137.0, 218.0, 715.0, 4300.0, 47303.0, 301887.0, 33818.0, 3365.0, 532.0, 189.0, 110.0, 72.0, 53.0, 29.0, 30.0, 16.0, 12.0, 8.0, 8.0, 6.0, 9.0, 4.0, 6.0, 2.0, 2.0, 2.0, 2.0, 0.0, 1.0, 0.0, 1.0, 0.0, 3.0, 1.0, 1.0, 0.0, 3.0], "bins": [-0.002961518708616495, -0.002870204159989953, -0.0027788893785327673, -0.002687574829906225, -0.0025962600484490395, -0.0025049454998224974, -0.0024136309511959553, -0.0023223161697387695, -0.0022310016211122274, -0.0021396868396550417, -0.0020483722910284996, -0.0019570577424019575, -0.0018657429609447718, -0.0017744282959029078, -0.0016831137472763658, -0.0015917990822345018, -0.001500484417192638, -0.001409169752150774, -0.00131785508710891, -0.001226540538482368, -0.001135225873440504, -0.0010439112083986402, -0.0009525965433567762, -0.0008612819365225732, -0.0007699672714807093, -0.0006786526064388454, -0.0005873379996046424, -0.0004960233345627785, -0.000404708698624745, -0.00031339406268671155, -0.00022207941219676286, -0.00013076476170681417, -3.945012576878071e-05, 5.186451744521037e-05, 0.00014317916065920144, 0.00023449381114915013, 0.0003258084470871836, 0.00041712308302521706, 0.000508437748067081, 0.000599752354901284, 0.0006910670199431479, 0.0007823816849850118, 0.0008736962918192148, 0.0009650109568610787, 0.0010563256219029427, 0.0011476402869448066, 0.0012389548355713487, 0.0013302695006132126, 0.0014215841656550765, 0.0015128988306969404, 0.0016042134957388043, 0.0016955280443653464, 0.0017868427094072104, 0.0018781573744490743, 0.001969472039490938, 0.0020607865881174803, 0.002152101369574666, 0.002243415918201208, 0.002334730699658394, 0.002426045248284936, 0.002517359796911478, 0.002608674578368664, 0.002699989126995206, 0.0027913039084523916, 0.0028826184570789337]}, "num_of_test_examples": 400, "test_loss": 0.0009135300328489394, "_wandb": {"runtime": 635}}