{"num_of_examples": 2320, "train_loss": 0.0057837673462927345, "_timestamp": 1716166549.274902, "_runtime": 37.312844038009644, "_step": 61, "gradients/output.bias": {"_type": "histogram", "values": [1.0], "bins": [-0.02835751697421074, -0.02835751697421074]}, "gradients/output.weight": {"_type": "histogram", "values": [1.0, 0.0, 1.0, 0.0, 0.0, 1.0, 0.0, 0.0, 1.0, 2.0, 2.0, 0.0, 2.0, 1.0, 3.0, 0.0, 3.0, 1.0, 0.0, 2.0, 0.0, 1.0, 2.0, 0.0, 0.0, 1.0, 2.0, 5.0, 2.0, 5.0, 2.0, 1.0, 2.0, 4.0, 1.0, 2.0, 3.0, 7.0, 3.0, 3.0, 5.0, 3.0, 2.0, 4.0, 4.0, 3.0, 3.0, 4.0, 3.0, 3.0, 6.0, 2.0, 2.0, 6.0, 3.0, 2.0, 11.0, 3.0, 101.0, 12.0, 1.0, 2.0, 0.0, 5.0], "bins": [-0.02151022106409073, -0.021143784746527672, -0.020777350291609764, -0.020410913974046707, -0.0200444795191288, -0.019678043201565742, -0.019311606884002686, -0.018945172429084778, -0.01857873611152172, -0.018212301656603813, -0.017845865339040756, -0.0174794290214777, -0.01711299456655979, -0.016746558248996735, -0.016380121931433678, -0.01601368747651577, -0.015647251158952713, -0.01528081577271223, -0.014914380386471748, -0.014547945000231266, -0.014181509613990784, -0.013815073296427727, -0.013448637910187244, -0.013082202523946762, -0.01271576713770628, -0.012349331751465797, -0.01198289543390274, -0.011616460047662258, -0.011250024661421776, -0.010883589275181293, -0.010517152957618237, -0.010150717571377754, -0.009784281253814697, -0.009417845867574215, -0.009051410481333733, -0.00868497509509325, -0.008318539708852768, -0.007952103391289711, -0.007585668005049229, -0.007219232618808746, -0.006852796766906977, -0.006486361380666494, -0.006119925528764725, -0.005753490142524242, -0.00538705475628376, -0.00502061890438199, -0.004654183518141508, -0.0042877476662397385, -0.003921312279999256, -0.00355487666092813, -0.003188441041857004, -0.002822005422785878, -0.002455569803714752, -0.002089134184643626, -0.0017226985655725002, -0.001356263062916696, -0.00098982744384557, -0.0006233918247744441, -0.00025695626391097903, 0.0001094793260563165, 0.000475914916023612, 0.000842350535094738, 0.001208786154165864, 0.0015752216568216681, 0.0019416572758927941]}, "gradients/linearlayers.4.0.bias": {"_type": "histogram", "values": [1.0, 0.0, 0.0, 1.0, 0.0, 8.0, 4.0, 5.0, 4.0, 2.0, 4.0, 2.0, 5.0, 7.0, 2.0, 4.0, 5.0, 1.0, 6.0, 3.0, 5.0, 7.0, 4.0, 10.0, 2.0, 5.0, 97.0, 6.0, 5.0, 1.0, 9.0, 7.0, 3.0, 0.0, 5.0, 5.0, 1.0, 3.0, 4.0, 3.0, 0.0, 1.0, 2.0, 2.0, 2.0, 1.0, 0.0, 0.0, 0.0, 0.0, 0.0, 0.0, 0.0, 0.0, 0.0, 0.0, 0.0, 0.0, 1.0, 0.0, 0.0, 0.0, 0.0, 1.0], "bins": [-0.0022307755425572395, -0.0021479118149727583, -0.002065048087388277, -0.001982184359803796, -0.0018993206322193146, -0.0018164567882195115, -0.0017335930606350303, -0.001650729333050549, -0.0015678656054660678, -0.0014850018778815866, -0.0014021381502971053, -0.001319274422712624, -0.001236410578712821, -0.0011535468511283398, -0.0010706831235438585, -0.0009878193959593773, -0.000904955668374896, -0.0008220919407904148, -0.0007392282132059336, -0.0006563644274137914, -0.0005735006998293102, -0.0004906369722448289, -0.00040777321555651724, -0.00032490945886820555, -0.0002420457312837243, -0.00015918198914732784, -7.631824701093137e-05, 6.545495125465095e-06, 8.940923726186156e-05, 0.00017227297939825803, 0.0002551367215346545, 0.0003380004782229662, 0.00042086420580744743, 0.0005037279333919287, 0.0005865916609764099, 0.0006694554467685521, 0.0007523191743530333, 0.0008351829019375145, 0.0009180466877296567, 0.001000910415314138, 0.0010837741428986192, 0.0011666378704831004, 0.0012495015980675817, 0.001332365325652063, 0.001415229169651866, 0.0014980928972363472, 0.0015809566248208284, 0.0016638203524053097, 0.001746684079989791, 0.0018295478075742722, 0.0019124115351587534, 0.0019952752627432346, 0.002078138990327716, 0.002161002717912197, 0.0022438664454966784, 0.0023267301730811596, 0.0024095941334962845, 0.0024924578610807657, 0.002575321588665247, 0.002658185316249728, 0.0027410490438342094, 0.0028239127714186907, 0.002906776499003172, 0.002989640226587653, 0.0030725039541721344]}, "gradients/linearlayers.4.0.weight": {"_type": "histogram", "values": [1.0, 1.0, 6.0, 4.0, 14.0, 14.0, 20.0, 26.0, 37.0, 47.0, 76.0, 90.0, 136.0, 147.0, 182.0, 220.0, 265.0, 287.0, 376.0, 445.0, 494.0, 596.0, 660.0, 862.0, 1072.0, 1453.0, 1809.0, 3659.0, 46696.0, 1739.0, 1015.0, 770.0, 534.0, 430.0, 335.0, 250.0, 183.0, 138.0, 113.0, 71.0, 58.0, 43.0, 36.0, 26.0, 19.0, 12.0, 12.0, 11.0, 9.0, 7.0, 6.0, 4.0, 4.0, 3.0, 4.0, 0.0, 4.0, 1.0, 1.0, 2.0, 0.0, 0.0, 0.0, 1.0], "bins": [-0.0018803454004228115, -0.0018135876161977649, -0.0017468297155573964, -0.0016800719313323498, -0.0016133140306919813, -0.0015465562464669347, -0.001479798462241888, -0.0014130405616015196, -0.001346282777376473, -0.0012795249931514263, -0.0012127670925110579, -0.0011460093082860112, -0.0010792515240609646, -0.0010124936234205961, -0.0009457358391955495, -0.0008789779967628419, -0.0008122201543301344, -0.0007454623118974268, -0.0006787044694647193, -0.0006119466852396727, -0.0005451888428069651, -0.00047843100037425756, -0.0004116731870453805, -0.0003449153737165034, -0.00027815753128379583, -0.00021139970340300351, -0.0001446418755222112, -7.788404764141887e-05, -1.1126219760626554e-05, 5.5631608120165765e-05, 0.00012238943600095809, 0.0001891472638817504, 0.0002559053245931864, 0.0003226631670258939, 0.000389420980354771, 0.0004561787936836481, 0.0005229366361163557, 0.0005896944785490632, 0.0006564522627741098, 0.0007232101052068174, 0.0007899679476395249, 0.0008567257900722325, 0.00092348363250494, 0.0009902414167299867, 0.0010569992009550333, 0.0011237571015954018, 0.0011905148858204484, 0.0012572727864608169, 0.0013240305706858635, 0.0013907883549109101, 0.0014575462555512786, 0.0015243040397763252, 0.0015910619404166937, 0.0016578197246417403, 0.001724577508866787, 0.0017913354095071554, 0.001858093193732202, 0.0019248509779572487, 0.001991608878597617, 0.0020583667792379856, 0.0021251244470477104, 0.002191882347688079, 0.0022586402483284473, 0.002325397916138172, 0.0023921558167785406]}, "gradients/linearlayers.3.0.bias": {"_type": "histogram", "values": [1.0, 0.0, 0.0, 0.0, 3.0, 1.0, 0.0, 1.0, 1.0, 0.0, 0.0, 0.0, 1.0, 1.0, 2.0, 1.0, 5.0, 1.0, 2.0, 2.0, 2.0, 4.0, 6.0, 8.0, 7.0, 3.0, 4.0, 7.0, 6.0, 8.0, 11.0, 14.0, 107.0, 6.0, 1.0, 8.0, 6.0, 3.0, 4.0, 5.0, 3.0, 1.0, 1.0, 0.0, 2.0, 2.0, 0.0, 2.0, 0.0, 0.0, 0.0, 0.0, 0.0, 1.0, 0.0, 0.0, 0.0, 0.0, 0.0, 0.0, 1.0, 0.0, 0.0, 1.0], "bins": [-0.0024834517389535904, -0.0024071538355201483, -0.002330855932086706, -0.0022545577958226204, -0.0021782598923891783, -0.002101961988955736, -0.002025664085522294, -0.00194936606567353, -0.001873068162240088, -0.0017967702588066459, -0.001720472238957882, -0.0016441743355244398, -0.0015678764320909977, -0.0014915784122422338, -0.0014152805088087916, -0.0013389824889600277, -0.0012626845855265856, -0.0011863866820931435, -0.0011100886622443795, -0.0010337907588109374, -0.0009574927971698344, -0.0008811948355287313, -0.0008048969320952892, -0.0007285989704541862, -0.0006523010088130832, -0.0005760030471719801, -0.0004997050855308771, -0.000423407182097435, -0.00034710922045633197, -0.00027081125881522894, -0.00019451332627795637, -0.00011821537918876857, -4.191766493022442e-05, 3.438028215896338e-05, 0.00011067822924815118, 0.00018697617633733898, 0.0002632741234265268, 0.0003395720850676298, 0.0004158700176049024, 0.000492167950142175, 0.000568465911783278, 0.000644763873424381, 0.000721061835065484, 0.0007973597384989262, 0.0008736577001400292, 0.0009499556617811322, 0.0010262535652145743, 0.0011025515850633383, 0.0011788494884967804, 0.0012551473919302225, 0.0013314454117789865, 0.0014077433152124286, 0.0014840413350611925, 0.0015603392384946346, 0.0016366371419280767, 0.0017129351617768407, 0.0017892330652102828, 0.001865530968643725, 0.0019418289884924889, 0.002018126891925931, 0.002094424795359373, 0.002170722698792815, 0.002247020835056901, 0.002323318738490343, 0.002399616641923785]}, "gradients/linearlayers.3.0.weight": {"_type": "histogram", "values": [1.0, 0.0, 0.0, 0.0, 0.0, 0.0, 2.0, 2.0, 1.0, 3.0, 1.0, 8.0, 5.0, 5.0, 9.0, 18.0, 12.0, 15.0, 26.0, 26.0, 32.0, 50.0, 52.0, 82.0, 76.0, 142.0, 167.0, 221.0, 297.0, 383.0, 552.0, 728.0, 1039.0, 1546.0, 2473.0, 48255.0, 5893.0, 1436.0, 751.0, 401.0, 258.0, 158.0, 100.0, 80.0, 58.0, 39.0, 25.0, 26.0, 15.0, 16.0, 11.0, 7.0, 9.0, 7.0, 2.0, 1.0, 2.0, 4.0, 2.0, 3.0, 2.0, 0.0, 0.0, 1.0], "bins": [-0.0031906007789075375, -0.003101905807852745, -0.0030132108367979527, -0.0029245156329125166, -0.002835820661857724, -0.002747125690802932, -0.0026584307197481394, -0.0025697355158627033, -0.002481040544807911, -0.0023923455737531185, -0.002303650602698326, -0.0022149556316435337, -0.0021262604277580976, -0.0020375654567033052, -0.0019488704856485128, -0.0018601753981783986, -0.0017714804271236062, -0.0016827854560688138, -0.0015940903685986996, -0.0015053953975439072, -0.001416700310073793, -0.0013280053390190005, -0.0012393102515488863, -0.001150615280494094, -0.0010619203094393015, -0.0009732252219691873, -0.0008845301927067339, -0.0007958351634442806, -0.0007071401923894882, -0.0006184451631270349, -0.0005297501338645816, -0.00044105510460212827, -0.00035236007533967495, -0.00026366504607722163, -0.00017497003136668354, -8.627500938018784e-05, 2.420012606307864e-06, 9.111503459280357e-05, 0.00017981005657929927, 0.00026850507128983736, 0.0003572001005522907, 0.000445895129814744, 0.0005345901590771973, 0.0006232851883396506, 0.000711980159394443, 0.0008006751886568964, 0.0008893702179193497, 0.000978065305389464, 0.0010667602764442563, 0.0011554552474990487, 0.001244150334969163, 0.0013328453060239553, 0.0014215403934940696, 0.001510235364548862, 0.0015989304520189762, 0.0016876254230737686, 0.001776320394128561, 0.0018650154815986753, 0.0019537105690687895, 0.002042405540123582, 0.0021311005111783743, 0.0022197954822331667, 0.0023084906861186028, 0.002397185657173395, 0.0024858806282281876]}, "gradients/linearlayers.2.0.bias": {"_type": "histogram", "values": [1.0, 0.0, 0.0, 0.0, 0.0, 1.0, 0.0, 3.0, 0.0, 1.0, 0.0, 2.0, 2.0, 1.0, 1.0, 0.0, 3.0, 1.0, 1.0, 3.0, 4.0, 0.0, 6.0, 5.0, 2.0, 4.0, 1.0, 3.0, 2.0, 1.0, 3.0, 5.0, 4.0, 2.0, 3.0, 6.0, 5.0, 3.0, 6.0, 6.0, 8.0, 96.0, 10.0, 5.0, 5.0, 8.0, 0.0, 3.0, 2.0, 7.0, 6.0, 1.0, 1.0, 1.0, 2.0, 2.0, 1.0, 0.0, 2.0, 0.0, 2.0, 1.0, 1.0, 1.0], "bins": [-0.0019629206508398056, -0.0019154954934492707, -0.0018680703360587358, -0.001820645178668201, -0.001773220021277666, -0.0017257948638871312, -0.0016783697064965963, -0.0016309445491060615, -0.0015835193917155266, -0.0015360943507403135, -0.0014886691933497787, -0.0014412440359592438, -0.001393818878568709, -0.001346393721178174, -0.0012989685637876391, -0.0012515434063971043, -0.0012041182490065694, -0.0011566930916160345, -0.0011092679342254996, -0.0010618427768349648, -0.0010144176194444299, -0.0009669925202615559, -0.000919567362871021, -0.0008721422054804862, -0.0008247170480899513, -0.0007772918906994164, -0.0007298667333088815, -0.0006824415759183466, -0.0006350164767354727, -0.0005875913193449378, -0.0005401661619544029, -0.000492741004563868, -0.00044531584717333317, -0.0003978906897827983, -0.0003504655323922634, -0.000303040404105559, -0.0002556152467150241, -0.00020819008932448924, -0.0001607649464858696, -0.00011333979637129232, -6.591464625671506e-05, -1.8489496142137796e-05, 2.8935653972439468e-05, 7.636080408701673e-05, 0.000123785954201594, 0.00017121111159212887, 0.00021863625443074852, 0.00026606139726936817, 0.00031348655465990305, 0.00036091171205043793, 0.0004083368694409728, 0.0004557619977276772, 0.0005031871842220426, 0.0005506122834049165, 0.0005980374407954514, 0.0006454625981859863, 0.0006928877555765212, 0.000740312912967056, 0.0007877380703575909, 0.0008351632277481258, 0.0008825883269309998, 0.0009300134843215346, 0.0009774386417120695, 0.0010248637991026044, 0.0010722889564931393]}, "gradients/linearlayers.2.0.weight": {"_type": "histogram", "values": [1.0, 0.0, 0.0, 0.0, 1.0, 0.0, 0.0, 0.0, 0.0, 1.0, 0.0, 3.0, 3.0, 2.0, 2.0, 7.0, 3.0, 3.0, 13.0, 9.0, 11.0, 17.0, 26.0, 16.0, 40.0, 46.0, 35.0, 64.0, 73.0, 97.0, 123.0, 120.0, 187.0, 245.0, 290.0, 354.0, 482.0, 616.0, 733.0, 983.0, 1250.0, 1847.0, 3216.0, 46617.0, 3936.0, 1639.0, 951.0, 522.0, 349.0, 215.0, 135.0, 75.0, 58.0, 41.0, 27.0, 21.0, 15.0, 7.0, 2.0, 3.0, 1.0, 1.0, 1.0, 1.0], "bins": [-0.003125418210402131, -0.0030538931023329496, -0.002982367994263768, -0.0029108428861945868, -0.0028393175452947617, -0.00276779243722558, -0.0026962673291563988, -0.0026247422210872173, -0.002553217113018036, -0.0024816920049488544, -0.002410166896879673, -0.0023386417888104916, -0.00226711668074131, -0.002195591339841485, -0.0021240662317723036, -0.002052541123703122, -0.0019810160156339407, -0.0019094909075647593, -0.0018379657994955778, -0.0017664405750110745, -0.001694915466941893, -0.0016233903588727117, -0.0015518651343882084, -0.001480340026319027, -0.0014088149182498455, -0.001337289810180664, -0.0012657647021114826, -0.0011942394776269794, -0.001122714369557798, -0.0010511892614886165, -0.0009796640370041132, -0.0009081389289349318, -0.000836614053696394, -0.0007650889456272125, -0.0006935637793503702, -0.0006220386130735278, -0.0005505135050043464, -0.00047898836783133447, -0.00040746323065832257, -0.0003359380934853107, -0.0002644129563122988, -0.00019288781913928688, -0.00012136268196627498, -4.983754479326308e-05, 2.168759237974882e-05, 9.321272955276072e-05, 0.00016473786672577262, 0.00023626300389878452, 0.0003077881410717964, 0.0003793132782448083, 0.0004508384154178202, 0.0005223635816946626, 0.000593888689763844, 0.0006654137978330255, 0.0007369389641098678, 0.0008084641303867102, 0.0008799892384558916, 0.000951514346525073, 0.0010230394545942545, 0.0010945646790787578, 0.0011660897871479392, 0.0012376148952171206, 0.001309140119701624, 0.0013806652277708054, 0.0014521903358399868]}, "gradients/linearlayers.1.0.bias": {"_type": "histogram", "values": [1.0, 1.0, 0.0, 1.0, 1.0, 3.0, 1.0, 1.0, 1.0, 0.0, 4.0, 1.0, 2.0, 1.0, 1.0, 2.0, 2.0, 2.0, 1.0, 5.0, 4.0, 4.0, 4.0, 9.0, 5.0, 3.0, 5.0, 2.0, 7.0, 9.0, 3.0, 8.0, 6.0, 9.0, 88.0, 7.0, 3.0, 7.0, 3.0, 3.0, 6.0, 0.0, 2.0, 5.0, 5.0, 1.0, 2.0, 4.0, 1.0, 2.0, 0.0, 1.0, 4.0, 0.0, 1.0, 0.0, 1.0, 0.0, 0.0, 0.0, 0.0, 0.0, 0.0, 1.0], "bins": [-0.0014903859701007605, -0.0014475234784185886, -0.001404660870321095, -0.0013617983786389232, -0.0013189358869567513, -0.0012760732788592577, -0.0012332107871770859, -0.001190348295494914, -0.0011474858038127422, -0.0011046231957152486, -0.0010617607040330768, -0.001018898212350905, -0.0009760356042534113, -0.0009331731125712395, -0.0008903105626814067, -0.0008474480709992349, -0.0008045855211094022, -0.0007617229712195694, -0.0007188604795373976, -0.0006759979296475649, -0.0006331354379653931, -0.0005902728880755603, -0.0005474103381857276, -0.0005045478465035558, -0.00046168529661372304, -0.00041882277582772076, -0.0003759602550417185, -0.00033309770515188575, -0.00029023518436588347, -0.0002473726635798812, -0.00020451012824196368, -0.00016164759290404618, -0.0001187850721180439, -7.592254405608401e-05, -3.3060015994124115e-05, 9.802512067835778e-06, 5.266504012979567e-05, 9.552756819175556e-05, 0.00013839009625371546, 0.00018125263159163296, 0.00022411515237763524, 0.0002669776731636375, 0.0003098401939496398, 0.00035270274383947253, 0.0003955652646254748, 0.0004384277854114771, 0.0004812903353013098, 0.0005241528269834816, 0.0005670153768733144, 0.0006098779267631471, 0.0006527404184453189, 0.0006956029683351517, 0.0007384654600173235, 0.0007813280099071562, 0.000824190559796989, 0.0008670530514791608, 0.0009099156013689935, 0.0009527781512588263, 0.000995640642940998, 0.00103850313462317, 0.0010813657427206635, 0.0011242282344028354, 0.0011670907260850072, 0.0012099533341825008, 0.0012528158258646727]}, "gradients/linearlayers.1.0.weight": {"_type": "histogram", "values": [4.0, 4.0, 3.0, 1.0, 2.0, 3.0, 11.0, 11.0, 15.0, 22.0, 18.0, 13.0, 41.0, 42.0, 37.0, 52.0, 55.0, 60.0, 78.0, 99.0, 104.0, 142.0, 169.0, 197.0, 213.0, 269.0, 351.0, 411.0, 509.0, 564.0, 699.0, 835.0, 1010.0, 1335.0, 1748.0, 2406.0, 4431.0, 41883.0, 2834.0, 1444.0, 897.0, 652.0, 439.0, 367.0, 260.0, 209.0, 148.0, 119.0, 90.0, 63.0, 40.0, 43.0, 20.0, 15.0, 9.0, 14.0, 9.0, 7.0, 0.0, 0.0, 4.0, 3.0, 1.0, 2.0], "bins": [-0.0019404314225539565, -0.0018885042518377304, -0.0018365770811215043, -0.0017846499104052782, -0.001732722739689052, -0.001680795568972826, -0.0016288683982566, -0.0015769412275403738, -0.0015250140568241477, -0.0014730868861079216, -0.0014211597153916955, -0.0013692325446754694, -0.0013173053739592433, -0.0012653782032430172, -0.001213451032526791, -0.001161523861810565, -0.001109596691094339, -0.0010576695203781128, -0.0010057423496618867, -0.0009538151789456606, -0.0009018880082294345, -0.0008499608375132084, -0.0007980336667969823, -0.0007461064960807562, -0.0006941793253645301, -0.000642252154648304, -0.0005903249839320779, -0.0005383978132158518, -0.0004864706424996257, -0.0004345434717833996, -0.0003826163010671735, -0.0003306891303509474, -0.00027876184321939945, -0.00022683467250317335, -0.00017490750178694725, -0.00012298033107072115, -7.105316035449505e-05, -1.9125989638268948e-05, 3.280118107795715e-05, 8.472835179418325e-05, 0.00013665552251040936, 0.00018858269322663546, 0.00024050986394286156, 0.00029243703465908766, 0.00034436420537531376, 0.00039629137609153986, 0.00044821854680776596, 0.0005001457175239921, 0.0005520728882402182, 0.0006040000589564443, 0.0006559272296726704, 0.0007078544003888965, 0.0007597815711051226, 0.0008117087418213487, 0.0008636359125375748, 0.0009155630832538009, 0.000967490253970027, 0.001019417424686253, 0.0010713445954024792, 0.0011232717661187053, 0.0011751989368349314, 0.0012271261075511575, 0.0012790532782673836, 0.0013309804489836097, 0.0013829076196998358]}, "gradients/linearlayers.0.0.bias": {"_type": "histogram", "values": [1.0, 0.0, 0.0, 0.0, 0.0, 0.0, 0.0, 0.0, 1.0, 0.0, 0.0, 0.0, 0.0, 0.0, 0.0, 1.0, 0.0, 1.0, 2.0, 1.0, 5.0, 1.0, 1.0, 1.0, 2.0, 1.0, 0.0, 6.0, 4.0, 5.0, 0.0, 4.0, 4.0, 4.0, 5.0, 4.0, 10.0, 7.0, 9.0, 10.0, 3.0, 8.0, 12.0, 7.0, 9.0, 66.0, 8.0, 8.0, 8.0, 5.0, 7.0, 3.0, 3.0, 0.0, 5.0, 2.0, 2.0, 4.0, 3.0, 1.0, 0.0, 1.0, 0.0, 1.0], "bins": [-0.0018101063324138522, -0.0017700782045722008, -0.0017300499603152275, -0.001690021832473576, -0.0016499937046319246, -0.0016099655767902732, -0.0015699373325333, -0.0015299092046916485, -0.001489881076849997, -0.0014498528325930238, -0.0014098247047513723, -0.001369796576909721, -0.0013297684490680695, -0.0012897402048110962, -0.0012497120769694448, -0.0012096839491277933, -0.00116965570487082, -0.0011296275770291686, -0.0010895994491875172, -0.0010495713213458657, -0.0010095430770888925, -0.000969514949247241, -0.0009294868214055896, -0.0008894586353562772, -0.0008494304493069649, -0.0008094023214653134, -0.0007693741354160011, -0.0007293460075743496, -0.0006893178215250373, -0.0006492896936833858, -0.0006092615076340735, -0.0005692333797924221, -0.0005292051937431097, -0.0004891770076937973, -0.0004491488798521459, -0.000409120722906664, -0.0003690925659611821, -0.00032906437991186976, -0.00028903622296638787, -0.00024900806602090597, -0.00020897990907542408, -0.00016895175212994218, -0.00012892359518446028, -8.889542368706316e-05, -4.886726674158126e-05, -8.839106158120558e-06, 3.1189054425340146e-05, 7.121721864677966e-05, 0.00011124537559226155, 0.00015127353253774345, 0.00019130168948322535, 0.00023132986098062247, 0.00027135800337418914, 0.0003113861894235015, 0.0003514143463689834, 0.0003914425033144653, 0.0004314706602599472, 0.0004714988172054291, 0.0005115270032547414, 0.0005515551310963929, 0.0005915833171457052, 0.0006316114449873567, 0.000671639631036669, 0.0007116677588783205, 0.0007516959449276328]}, "gradients/linearlayers.0.0.weight": {"_type": "histogram", "values": [1.0, 0.0, 0.0, 3.0, 1.0, 1.0, 0.0, 0.0, 0.0, 3.0, 3.0, 5.0, 4.0, 6.0, 5.0, 6.0, 8.0, 12.0, 16.0, 12.0, 25.0, 36.0, 40.0, 61.0, 56.0, 55.0, 76.0, 102.0, 123.0, 128.0, 149.0, 174.0, 228.0, 276.0, 310.0, 436.0, 524.0, 662.0, 822.0, 1119.0, 1553.0, 2375.0, 4142.0, 37324.0, 8725.0, 2420.0, 1324.0, 757.0, 445.0, 292.0, 222.0, 148.0, 107.0, 73.0, 49.0, 38.0, 24.0, 10.0, 6.0, 7.0, 3.0, 0.0, 1.0, 3.0], "bins": [-0.0025874727871268988, -0.002528653247281909, -0.002469833707436919, -0.002411014400422573, -0.0023521948605775833, -0.0022933753207325935, -0.0022345557808876038, -0.0021757364738732576, -0.002116916934028268, -0.002058097394183278, -0.0019992778543382883, -0.0019404584309086204, -0.0018816390074789524, -0.0018228194676339626, -0.0017640000442042947, -0.001705180504359305, -0.001646361080929637, -0.0015875415410846472, -0.0015287220012396574, -0.0014699025778099895, -0.0014110830379649997, -0.0013522636145353317, -0.001293444074690342, -0.001234624651260674, -0.0011758051114156842, -0.0011169856879860163, -0.0010581661481410265, -0.0009993467247113585, -0.0009405271848663688, -0.0008817077032290399, -0.000822888221591711, -0.0007640687399543822, -0.0007052492583170533, -0.0006464297766797245, -0.0005876102950423956, -0.0005287908134050667, -0.00046997133176773787, -0.00041115182102657855, -0.0003523323393892497, -0.0002935128577519208, -0.00023469337611459196, -0.0001758738944772631, -0.00011705440556397662, -5.8234920288668945e-05, 5.845649866387248e-07, 5.9404050261946395e-05, 0.00011822353553725407, 0.00017704302445054054, 0.0002358625060878694, 0.00029468198772519827, 0.00035350146936252713, 0.000412320950999856, 0.00047114043263718486, 0.0005299599142745137, 0.0005887793959118426, 0.0006475988775491714, 0.0007064184173941612, 0.0007652378990314901, 0.000824057380668819, 0.0008828768623061478, 0.0009416963439434767, 0.0010005157673731446, 0.0010593353072181344, 0.0011181547306478024, 0.0011769742704927921]}, "gradients/embeds.2.bias": {"_type": "histogram", "values": [1.0, 0.0, 0.0, 1.0, 0.0, 0.0, 0.0, 0.0, 0.0, 0.0, 1.0, 0.0, 1.0, 0.0, 1.0, 1.0, 3.0, 1.0, 2.0, 2.0, 2.0, 2.0, 3.0, 3.0, 5.0, 4.0, 4.0, 5.0, 8.0, 2.0, 7.0, 4.0, 4.0, 2.0, 6.0, 8.0, 10.0, 9.0, 9.0, 18.0, 51.0, 13.0, 11.0, 8.0, 10.0, 4.0, 3.0, 3.0, 1.0, 7.0, 1.0, 3.0, 3.0, 2.0, 1.0, 1.0, 0.0, 0.0, 3.0, 0.0, 1.0, 0.0, 0.0, 1.0], "bins": [-0.00137999071739614, -0.0013461721828207374, -0.0013123536482453346, -0.0012785351136699319, -0.0012447165790945292, -0.0012108980445191264, -0.0011770795099437237, -0.001143260975368321, -0.0011094424407929182, -0.0010756239062175155, -0.0010418053716421127, -0.00100798683706671, -0.0009741683024913073, -0.0009403497679159045, -0.0009065312333405018, -0.000872712698765099, -0.0008388941641896963, -0.0008050756296142936, -0.0007712570950388908, -0.0007374385604634881, -0.0007036200258880854, -0.0006698014913126826, -0.0006359829567372799, -0.0006021644221618772, -0.0005683458875864744, -0.0005345273530110717, -0.0005007088184356689, -0.0004668902838602662, -0.00043307174928486347, -0.00039925321470946074, -0.000365434680134058, -0.00033161614555865526, -0.0002977976109832525, -0.0002639790764078498, -0.00023016054183244705, -0.00019634200725704432, -0.00016252347268164158, -0.00012870493810623884, -9.48864035308361e-05, -6.106786895543337e-05, -2.7249334380030632e-05, 6.569200195372105e-06, 4.038773477077484e-05, 7.420626934617758e-05, 0.00010802480392158031, 0.00014184333849698305, 0.0001756618730723858, 0.00020948040764778852, 0.00024329894222319126, 0.000277117476798594, 0.00031093601137399673, 0.00034475454594939947, 0.0003785730805248022, 0.00041239161510020494, 0.0004462101496756077, 0.0004800286842510104, 0.0005138472188264132, 0.0005476657534018159, 0.0005814842879772186, 0.0006153028225526214, 0.0006491213571280241, 0.0006829398917034268, 0.0007167584262788296, 0.0007505769608542323, 0.000784395495429635]}, "gradients/embeds.2.weight": {"_type": "histogram", "values": [1.0, 0.0, 0.0, 1.0, 3.0, 3.0, 5.0, 6.0, 6.0, 4.0, 11.0, 13.0, 18.0, 19.0, 17.0, 37.0, 41.0, 75.0, 69.0, 92.0, 118.0, 179.0, 180.0, 212.0, 258.0, 330.0, 409.0, 553.0, 727.0, 943.0, 1184.0, 1558.0, 2164.0, 3085.0, 4880.0, 8997.0, 76771.0, 15412.0, 5357.0, 2773.0, 1718.0, 997.0, 613.0, 431.0, 257.0, 183.0, 129.0, 64.0, 40.0, 38.0, 29.0, 22.0, 8.0, 13.0, 5.0, 11.0, 2.0, 0.0, 0.0, 0.0, 0.0, 0.0, 0.0, 1.0], "bins": [-0.002372806193307042, -0.0023084627464413643, -0.0022441192995756865, -0.0021797758527100086, -0.002115432405844331, -0.002051088958978653, -0.0019867457449436188, -0.0019224021816626191, -0.001858058851212263, -0.0017937154043465853, -0.0017293719574809074, -0.0016650285106152296, -0.0016006850637495518, -0.001536341616883874, -0.001471998286433518, -0.00140765483956784, -0.0013433113927021623, -0.0012789679458364844, -0.0012146244989708066, -0.0011502811685204506, -0.0010859377216547728, -0.001021594274789095, -0.0009572508279234171, -0.0008929074392654002, -0.0008285639923997223, -0.0007642205455340445, -0.0006998771568760276, -0.0006355337100103498, -0.0005711902631446719, -0.000506846874486655, -0.00044250342762097716, -0.0003781600098591298, -0.00031381670851260424, -0.00024947329075075686, -0.00018512985843699425, -0.00012078643339918926, -5.644300836138427e-05, 7.900416676420718e-06, 7.224384171422571e-05, 0.00013658727402798831, 0.0002009306917898357, 0.00026527410955168307, 0.00032961752731353045, 0.0003939609741792083, 0.00045830439194105566, 0.000522647809702903, 0.0005869912565685809, 0.0006513346452265978, 0.0007156780920922756, 0.0007800215389579535, 0.0008443649276159704, 0.0009087083744816482, 0.0009730517631396651, 0.001037395210005343, 0.0011017386568710208, 0.0011660821037366986, 0.0012304254341870546, 0.0012947688810527325, 0.0013591123279184103, 0.0014234557747840881, 0.001487799221649766, 0.0015521426685154438, 0.0016164859989657998, 0.0016808294458314776, 0.0017451728926971555]}, "gradients/embeds.0.bias": {"_type": "histogram", "values": [1.0, 0.0, 0.0, 0.0, 0.0, 0.0, 0.0, 0.0, 0.0, 2.0, 1.0, 1.0, 3.0, 2.0, 1.0, 4.0, 3.0, 6.0, 3.0, 5.0, 7.0, 5.0, 13.0, 5.0, 7.0, 9.0, 9.0, 12.0, 11.0, 14.0, 24.0, 22.0, 16.0, 29.0, 23.0, 105.0, 37.0, 25.0, 15.0, 21.0, 14.0, 7.0, 3.0, 6.0, 10.0, 5.0, 3.0, 4.0, 5.0, 4.0, 2.0, 3.0, 1.0, 1.0, 0.0, 0.0, 1.0, 0.0, 0.0, 0.0, 0.0, 0.0, 0.0, 2.0], "bins": [-0.0009370800689794123, -0.0009108595550060272, -0.000884639099240303, -0.0008584185852669179, -0.0008321980712935328, -0.0008059775573201478, -0.0007797570433467627, -0.0007535365875810385, -0.0007273160736076534, -0.0007010955596342683, -0.0006748751038685441, -0.000648654589895159, -0.0006224340759217739, -0.0005962135619483888, -0.0005699930479750037, -0.0005437725922092795, -0.0005175520782358944, -0.0004913315642625093, -0.0004651110793929547, -0.00043889059452340007, -0.00041267008055001497, -0.0003864495665766299, -0.00036022908170707524, -0.0003340085968375206, -0.0003077880828641355, -0.0002815675688907504, -0.00025534708402119577, -0.0002291265845997259, -0.00020290608517825603, -0.00017668558575678617, -0.0001504650863353163, -0.00012424458691384643, -9.802414570003748e-05, -7.180364627856761e-05, -4.5583146857097745e-05, -1.9362647435627878e-05, 6.8578519858419895e-06, 3.307835140731186e-05, 5.9298850828781724e-05, 8.551935025025159e-05, 0.00011173984967172146, 0.00013796034909319133, 0.0001641808485146612, 0.00019040134793613106, 0.00021662184735760093, 0.0002428423467790708, 0.00026906284620054066, 0.0002952833310700953, 0.0003215038450434804, 0.0003477243590168655, 0.00037394484388642013, 0.00040016532875597477, 0.00042638584272935987, 0.00045260635670274496, 0.0004788268415722996, 0.0005050473264418542, 0.0005312678404152393, 0.0005574883543886244, 0.0005837088683620095, 0.0006099293241277337, 0.0006361498381011188, 0.0006623703520745039, 0.0006885908078402281, 0.0007148113218136132, 0.0007410318357869983]}, "gradients/embeds.0.weight": {"_type": "histogram", "values": [1.0, 1.0, 0.0, 0.0, 0.0, 0.0, 0.0, 0.0, 0.0, 3.0, 2.0, 4.0, 3.0, 5.0, 4.0, 3.0, 8.0, 10.0, 13.0, 15.0, 12.0, 12.0, 12.0, 19.0, 21.0, 33.0, 35.0, 52.0, 81.0, 156.0, 326.0, 937.0, 3026.0, 12246.0, 72615.0, 266478.0, 28679.0, 5984.0, 1518.0, 426.0, 168.0, 62.0, 49.0, 36.0, 39.0, 23.0, 29.0, 19.0, 13.0, 11.0, 6.0, 6.0, 4.0, 4.0, 0.0, 2.0, 0.0, 1.0, 0.0, 0.0, 0.0, 0.0, 1.0, 3.0], "bins": [-0.009284027852118015, -0.009020626544952393, -0.008757226169109344, -0.008493824861943722, -0.008230423554778099, -0.007967022247612476, -0.007703621406108141, -0.0074402205646038055, -0.007176819257438183, -0.006913418415933847, -0.006650017574429512, -0.006386616267263889, -0.006123215425759554, -0.005859814118593931, -0.005596413277089596, -0.005333011969923973, -0.005069611128419638, -0.004806210286915302, -0.0045428089797496796, -0.004279408138245344, -0.0040160068310797215, -0.003752605989575386, -0.003489204915240407, -0.003225803840905428, -0.002962402766570449, -0.00269900169223547, -0.0024356006179004908, -0.0021721995435655117, -0.0019087985856458545, -0.0016453975113108754, -0.0013819965533912182, -0.0011185954790562391, -0.0008551944047212601, -0.000591793330386281, -0.00032839231425896287, -6.499126902781427e-05, 0.00019840977620333433, 0.00046181082143448293, 0.0007252118666656315, 0.0009886128827929497, 0.0012520139571279287, 0.0015154150314629078, 0.0017788161057978868, 0.002042217180132866, 0.0023056180216372013, 0.0025690190959721804, 0.0028324201703071594, 0.0030958212446421385, 0.0033592223189771175, 0.0036226233933120966, 0.0038860244676470757, 0.004149425309151411, 0.004412826616317034, 0.004676227457821369, 0.004939628764986992, 0.005203029606491327, 0.005466430447995663, 0.005729831755161285, 0.005993232596665621, 0.0062566339038312435, 0.006520034745335579, 0.006783436052501202, 0.007046836894005537, 0.00731023820117116, 0.007573639042675495]}, "num_of_test_examples": 0, "test_loss": 4.1942624375224116e-05, "_wandb": {"runtime": 40}}