{"num_of_examples": 1520, "train_loss": 0.157102569937706, "_timestamp": 1716369222.7969375, "_runtime": 620.1595115661621, "_step": 1077, "num_of_test_examples": 0, "test_loss": 0.006255890130996704, "epoch": 48, "val-auc": 0.9012694491169051, "gradients/output.bias": {"_type": "histogram", "values": [1.0, 0.0, 0.0, 0.0, 0.0, 0.0, 0.0, 0.0, 0.0, 0.0, 0.0, 0.0, 0.0, 0.0, 0.0, 0.0, 0.0, 0.0, 0.0, 0.0, 0.0, 0.0, 0.0, 0.0, 0.0, 0.0, 0.0, 0.0, 0.0, 0.0, 0.0, 0.0, 0.0, 0.0, 0.0, 0.0, 0.0, 0.0, 0.0, 0.0, 0.0, 0.0, 0.0, 0.0, 0.0, 0.0, 0.0, 0.0, 0.0, 0.0, 0.0, 0.0, 0.0, 0.0, 0.0, 0.0, 0.0, 0.0, 0.0, 0.0, 0.0, 0.0, 0.0, 1.0], "bins": [-0.0006728513399139047, -0.0006518247537314892, -0.0006307981093414128, -0.0006097715231589973, -0.0005887448787689209, -0.0005677182925865054, -0.0005466917064040899, -0.0005256650620140135, -0.000504638475831598, -0.0004836118605453521, -0.00046258524525910616, -0.0004415586590766907, -0.00042053204379044473, -0.0003995054285041988, -0.0003784788423217833, -0.00035745222703553736, -0.0003364256117492914, -0.0003153989964630455, -0.00029437238117679954, -0.00027334579499438405, -0.0002523191797081381, -0.00023129256442189217, -0.00021026596368756145, -0.00018923936295323074, -0.0001682127476669848, -0.00014718613238073885, -0.00012615953164640814, -0.00010513292363611981, -8.410631562583148e-05, -6.307970761554316e-05, -4.205309960525483e-05, -2.10264915949665e-05, 1.1641532182693481e-10, 2.1026724425610155e-05, 4.205333243589848e-05, 6.307994044618681e-05, 8.410654845647514e-05, 0.00010513315646676347, 0.0001261597644770518, 0.0001471863652113825, 0.00016821298049762845, 0.0001892395957838744, 0.0002102661965182051, 0.00023129279725253582, 0.00025231941253878176, 0.0002733460278250277, 0.0002943726140074432, 0.00031539922929368913, 0.0003364258445799351, 0.000357452459866181, 0.00037847907515242696, 0.00039950566133484244, 0.0004205322766210884, 0.00044155889190733433, 0.0004625854780897498, 0.00048361209337599576, 0.0005046387086622417, 0.0005256652948446572, 0.0005466919392347336, 0.0005677185254171491, 0.0005887451115995646, 0.000609771755989641, 0.0006307983421720564, 0.0006518249865621328, 0.0006728515727445483]}, "gradients/output.weight": {"_type": "histogram", "values": [2.0, 1.0, 0.0, 0.0, 0.0, 3.0, 3.0, 0.0, 5.0, 5.0, 7.0, 4.0, 7.0, 4.0, 2.0, 7.0, 2.0, 6.0, 7.0, 2.0, 6.0, 6.0, 10.0, 3.0, 7.0, 12.0, 12.0, 6.0, 13.0, 14.0, 10.0, 18.0, 162.0, 10.0, 14.0, 13.0, 6.0, 12.0, 12.0, 7.0, 3.0, 10.0, 6.0, 6.0, 2.0, 7.0, 6.0, 2.0, 7.0, 2.0, 4.0, 7.0, 4.0, 7.0, 5.0, 5.0, 0.0, 3.0, 3.0, 0.0, 0.0, 0.0, 1.0, 2.0], "bins": [-0.0016189434099942446, -0.0015683514066040516, -0.0015177594032138586, -0.0014671675162389874, -0.0014165755128487945, -0.0013659835094586015, -0.0013153915060684085, -0.0012647996190935373, -0.0012142076157033443, -0.0011636156123131514, -0.0011130236089229584, -0.0010624316055327654, -0.0010118397185578942, -0.0009612477151677012, -0.0009106557117775083, -0.0008600637665949762, -0.0008094717632047832, -0.0007588797598145902, -0.0007082878146320581, -0.0006576958112418652, -0.0006071038660593331, -0.0005565118626691401, -0.000505919917486608, -0.00045532791409641504, -0.0004047359398100525, -0.00035414396552369, -0.00030355199123732746, -0.00025296001695096493, -0.00020236802811268717, -0.00015177605382632464, -0.0001011840722640045, -5.059209433966316e-05, -1.1641532182693481e-10, 5.059186150901951e-05, 0.00010118383943336084, 0.000151775820995681, 0.00020236779528204352, 0.0002529597841203213, 0.0003035517584066838, 0.00035414373269304633, 0.00040473570697940886, 0.0004553276812657714, 0.0005059196846559644, 0.0005565116298384964, 0.0006071036332286894, 0.0006576955784112215, 0.0007082875818014145, 0.0007588795269839466, 0.0008094715303741395, 0.0008600635337643325, 0.0009106554789468646, 0.0009612474823370576, 0.0010118394857272506, 0.0010624313727021217, 0.0011130233760923147, 0.0011636153794825077, 0.0012142073828727007, 0.0012647993862628937, 0.0013153912732377648, 0.0013659832766279578, 0.0014165752800181508, 0.0014671672834083438, 0.001517759170383215, 0.001568351173773408, 0.001618943177163601]}, "gradients/linearlayers.4.0.bias": {"_type": "histogram", "values": [1.0, 1.0, 2.0, 4.0, 1.0, 3.0, 3.0, 2.0, 3.0, 3.0, 1.0, 1.0, 2.0, 5.0, 2.0, 2.0, 6.0, 4.0, 2.0, 7.0, 2.0, 3.0, 6.0, 11.0, 1.0, 3.0, 3.0, 0.0, 1.0, 0.0, 1.0, 80.0, 0.0, 1.0, 0.0, 2.0, 8.0, 5.0, 3.0, 0.0, 3.0, 7.0, 5.0, 3.0, 6.0, 5.0, 2.0, 2.0, 4.0, 3.0, 4.0, 4.0, 4.0, 3.0, 1.0, 2.0, 3.0, 1.0, 3.0, 1.0, 1.0, 3.0, 0.0, 1.0], "bins": [-8.263375639216974e-05, -7.996924978215247e-05, -7.730473589617759e-05, -7.464022928616032e-05, -7.197572267614305e-05, -6.931120879016817e-05, -6.66467021801509e-05, -6.398219557013363e-05, -6.131768168415874e-05, -5.865317507414147e-05, -5.59886684641242e-05, -5.3324158216128126e-05, -5.065964796813205e-05, -4.799514135811478e-05, -4.53306311101187e-05, -4.266612450010143e-05, -4.0001614252105355e-05, -3.733710400410928e-05, -3.467259739409201e-05, -3.200808714609593e-05, -2.9343578717089258e-05, -2.6679070288082585e-05, -2.4014560040086508e-05, -2.1350051611079834e-05, -1.868554318207316e-05, -1.6021034753066488e-05, -1.3356525414565112e-05, -1.0692016076063737e-05, -8.027507647057064e-06, -5.36299876330304e-06, -2.6984898795490153e-06, -3.398099579499103e-08, 2.6305351639166474e-06, 5.295044047670672e-06, 7.959552931424696e-06, 1.0624062269926071e-05, 1.3288570698932745e-05, 1.5953079127939418e-05, 1.8617589375935495e-05, 2.1282097804942168e-05, 2.394660623394884e-05, 2.6611114662955515e-05, 2.927562309196219e-05, 3.1940133339958265e-05, 3.460464358795434e-05, 3.726915019797161e-05, 3.993366044596769e-05, 4.259816705598496e-05, 4.5262677303981036e-05, 4.792718755197711e-05, 5.059169416199438e-05, 5.325620440999046e-05, 5.592071102000773e-05, 5.8585221268003806e-05, 6.124973151599988e-05, 6.391423812601715e-05, 6.657875201199204e-05, 6.924325862200931e-05, 7.190776523202658e-05, 7.457227184204385e-05, 7.723678572801873e-05, 7.9901292338036e-05, 8.256579894805327e-05, 8.523031283402815e-05, 8.789481944404542e-05]}, "gradients/linearlayers.4.0.weight": {"_type": "histogram", "values": [1.0, 2.0, 2.0, 6.0, 5.0, 7.0, 8.0, 15.0, 21.0, 32.0, 31.0, 48.0, 59.0, 103.0, 122.0, 129.0, 189.0, 213.0, 227.0, 298.0, 349.0, 444.0, 591.0, 786.0, 899.0, 1129.0, 1391.0, 1610.0, 2040.0, 2033.0, 37815.0, 1549.0, 2204.0, 1923.0, 1715.0, 1341.0, 1156.0, 999.0, 769.0, 672.0, 491.0, 405.0, 341.0, 292.0, 232.0, 188.0, 148.0, 111.0, 108.0, 73.0, 60.0, 38.0, 30.0, 25.0, 16.0, 16.0, 7.0, 7.0, 4.0, 4.0, 2.0, 3.0, 1.0, 1.0], "bins": [-0.00020830438006669283, -0.00020157004473730922, -0.00019483572395984083, -0.00018810138863045722, -0.00018136706785298884, -0.00017463273252360523, -0.00016789841174613684, -0.00016116407641675323, -0.00015442975563928485, -0.00014769542030990124, -0.00014096108498051763, -0.00013422676420304924, -0.00012749242887366563, -0.00012075810082023963, -0.00011402377276681364, -0.00010728944471338764, -0.00010055511665996164, -9.382078860653564e-05, -8.708646055310965e-05, -8.035213249968365e-05, -7.361780444625765e-05, -6.688346911687404e-05, -6.014914106344804e-05, -5.3414813010022044e-05, -4.668048495659605e-05, -3.994615690317005e-05, -3.321182884974405e-05, -2.6477497158339247e-05, -1.974316910491325e-05, -1.300884014199255e-05, -6.274511179071851e-06, 4.598177838488482e-07, 7.194161298684776e-06, 1.3928490261605475e-05, 2.0662819224526174e-05, 2.7397149096941575e-05, 3.413147715036757e-05, 4.086580520379357e-05, 4.7600136895198375e-05, 5.433446494862437e-05, 6.106879300205037e-05, 6.780312105547637e-05, 7.453744910890236e-05, 8.127177716232836e-05, 8.800611249171197e-05, 9.474044054513797e-05, 0.00010147476859856397, 0.00010820909665198997, 0.00011494342470541596, 0.00012167775275884196, 0.00012841208081226796, 0.00013514641614165157, 0.00014188073691911995, 0.00014861507224850357, 0.00015534939302597195, 0.00016208372835535556, 0.00016881804913282394, 0.00017555238446220756, 0.00018228671979159117, 0.00018902104056905955, 0.00019575537589844316, 0.00020248969667591155, 0.00020922403200529516, 0.00021595835278276354, 0.00022269268811214715]}, "gradients/linearlayers.3.0.bias": {"_type": "histogram", "values": [1.0, 0.0, 0.0, 0.0, 1.0, 1.0, 1.0, 3.0, 5.0, 2.0, 5.0, 3.0, 4.0, 3.0, 5.0, 4.0, 3.0, 2.0, 3.0, 6.0, 1.0, 3.0, 5.0, 3.0, 5.0, 3.0, 1.0, 1.0, 3.0, 1.0, 3.0, 91.0, 2.0, 2.0, 1.0, 0.0, 4.0, 4.0, 3.0, 2.0, 5.0, 4.0, 1.0, 5.0, 7.0, 5.0, 1.0, 5.0, 3.0, 5.0, 1.0, 3.0, 4.0, 4.0, 1.0, 3.0, 3.0, 3.0, 0.0, 0.0, 1.0, 1.0, 0.0, 1.0], "bins": [-0.00018100568559020758, -0.00017534625658299774, -0.00016968681302387267, -0.00016402738401666284, -0.00015836794045753777, -0.00015270851145032793, -0.00014704906789120287, -0.00014138963888399303, -0.00013573019532486796, -0.00013007076631765813, -0.0001244113373104483, -0.00011875189375132322, -0.00011309246474411339, -0.00010743302846094593, -0.00010177359217777848, -9.611415589461103e-05, -9.045471961144358e-05, -8.479528332827613e-05, -7.913584704510868e-05, -7.347641076194122e-05, -6.781697447877377e-05, -6.215754547156394e-05, -5.6498109188396484e-05, -5.083867290522903e-05, -4.517923662206158e-05, -3.951980033889413e-05, -3.386036405572668e-05, -2.8200931410538033e-05, -2.254149512737058e-05, -1.688205884420313e-05, -1.1222624380025081e-05, -5.5631890063523315e-06, 9.623181540518999e-08, 5.75566718907794e-06, 1.141510256275069e-05, 1.7074537026928738e-05, 2.273397331009619e-05, 2.839340959326364e-05, 3.4052842238452286e-05, 3.971227852161974e-05, 4.537171480478719e-05, 5.103115108795464e-05, 5.669058737112209e-05, 6.235002365428954e-05, 6.800945266149938e-05, 7.366888894466683e-05, 7.932832522783428e-05, 8.498776151100174e-05, 9.064719779416919e-05, 9.630663407733664e-05, 0.00010196607036050409, 0.00010762550664367154, 0.000113284942926839, 0.00011894437193404883, 0.0001246038154931739, 0.00013026324450038373, 0.0001359226880595088, 0.00014158211706671864, 0.00014724154607392848, 0.00015290098963305354, 0.00015856041864026338, 0.00016421986219938844, 0.00016987929120659828, 0.00017553873476572335, 0.00018119816377293319]}, "gradients/linearlayers.3.0.weight": {"_type": "histogram", "values": [2.0, 1.0, 0.0, 0.0, 3.0, 3.0, 3.0, 9.0, 15.0, 8.0, 17.0, 17.0, 25.0, 20.0, 34.0, 42.0, 55.0, 72.0, 92.0, 140.0, 162.0, 211.0, 267.0, 359.0, 458.0, 586.0, 853.0, 1152.0, 1579.0, 1979.0, 2594.0, 41305.0, 2772.0, 2672.0, 2065.0, 1532.0, 1121.0, 820.0, 582.0, 436.0, 344.0, 246.0, 199.0, 157.0, 126.0, 90.0, 70.0, 49.0, 43.0, 33.0, 17.0, 21.0, 22.0, 10.0, 8.0, 11.0, 10.0, 7.0, 1.0, 1.0, 3.0, 2.0, 1.0, 2.0], "bins": [-0.0005902572884224355, -0.0005717823514714837, -0.000553307356312871, -0.0005348324193619192, -0.0005163574242033064, -0.0004978824872523546, -0.00047940752119757235, -0.0004609325551427901, -0.0004424575890880078, -0.00042398262303322554, -0.00040550765697844326, -0.000387032690923661, -0.0003685577539727092, -0.0003500827879179269, -0.00033160782186314464, -0.00031313285580836236, -0.0002946578897535801, -0.0002761829236987978, -0.00025770795764401555, -0.0002392330061411485, -0.00022075804008636624, -0.00020228307403158396, -0.00018380812252871692, -0.00016533315647393465, -0.00014685819041915238, -0.0001283832243643701, -0.00010990826558554545, -9.14333068067208e-05, -7.295834075193852e-05, -5.448337833513506e-05, -3.600841591833159e-05, -1.753345350152813e-05, 9.414507076144218e-07, 1.9416413124417886e-05, 3.789137554122135e-05, 5.6366337958024815e-05, 7.484130037482828e-05, 9.331626642961055e-05, 0.00011179122520843521, 0.00013026618398725986, 0.00014874115004204214, 0.0001672161160968244, 0.00018569108215160668, 0.00020416603365447372, 0.000222640999709256, 0.00024111596576403826, 0.0002595909172669053, 0.0002780658833216876, 0.00029654084937646985, 0.0003150158154312521, 0.0003334907814860344, 0.00035196574754081666, 0.00037044071359559894, 0.00038891565054655075, 0.000407390616601333, 0.0004258655826561153, 0.00044434054871089756, 0.00046281551476567984, 0.0004812904808204621, 0.0004997654468752444, 0.0005182403838261962, 0.0005367153789848089, 0.0005551903159357607, 0.0005736653110943735, 0.0005921402480453253]}, "gradients/linearlayers.2.0.bias": {"_type": "histogram", "values": [1.0, 1.0, 0.0, 0.0, 0.0, 1.0, 3.0, 0.0, 0.0, 4.0, 0.0, 3.0, 2.0, 2.0, 7.0, 3.0, 8.0, 3.0, 3.0, 4.0, 3.0, 1.0, 5.0, 5.0, 1.0, 1.0, 2.0, 0.0, 1.0, 5.0, 2.0, 5.0, 6.0, 92.0, 2.0, 5.0, 3.0, 2.0, 3.0, 3.0, 3.0, 5.0, 5.0, 7.0, 3.0, 3.0, 5.0, 5.0, 4.0, 2.0, 3.0, 3.0, 1.0, 1.0, 4.0, 3.0, 1.0, 1.0, 1.0, 1.0, 2.0, 0.0, 0.0, 1.0], "bins": [-0.00034294131910428405, -0.00033257255563512444, -0.0003222038212697953, -0.0003118350578006357, -0.00030146632343530655, -0.00029109755996614695, -0.00028072879649698734, -0.0002703600621316582, -0.0002599912986624986, -0.000249622535193339, -0.00023925380082800984, -0.00022888503735885024, -0.00021851628844160587, -0.0002081475395243615, -0.0001977787760552019, -0.0001874100271379575, -0.00017704127822071314, -0.00016667252930346876, -0.0001563037803862244, -0.00014593501691706479, -0.0001355662679998204, -0.00012519751908257604, -0.00011482876288937405, -0.00010446000669617206, -9.409125777892768e-05, -8.372250886168331e-05, -7.335375266848132e-05, -6.298499647527933e-05, -5.2616247558034956e-05, -4.2247495002811775e-05, -3.187874244758859e-05, -2.150998989236541e-05, -1.1141237337142229e-05, -7.724847819190472e-07, 9.596267773304135e-06, 1.9965020328527316e-05, 3.0333772883750498e-05, 4.070252543897368e-05, 5.107127799419686e-05, 6.144003418739885e-05, 7.180878310464323e-05, 8.21775320218876e-05, 9.254628821508959e-05, 0.00010291504440829158, 0.00011328379332553595, 0.00012365254224278033, 0.00013402130571193993, 0.0001443900546291843, 0.00015475880354642868, 0.00016512755246367306, 0.00017549630138091743, 0.00018586506485007703, 0.0001962338137673214, 0.00020660256268456578, 0.00021697132615372539, 0.00022734007507096976, 0.00023770882398821414, 0.00024807758745737374, 0.0002584463218227029, 0.0002688150852918625, 0.0002791838487610221, 0.00028955258312635124, 0.00029992134659551084, 0.00031029008096084, 0.0003206588444299996]}, "gradients/linearlayers.2.0.weight": {"_type": "histogram", "values": [2.0, 2.0, 0.0, 1.0, 4.0, 6.0, 8.0, 7.0, 6.0, 15.0, 16.0, 20.0, 36.0, 29.0, 52.0, 51.0, 87.0, 95.0, 137.0, 144.0, 174.0, 221.0, 276.0, 343.0, 449.0, 530.0, 654.0, 859.0, 1037.0, 1185.0, 1222.0, 1565.0, 4326.0, 42022.0, 2003.0, 1677.0, 1347.0, 1102.0, 831.0, 667.0, 501.0, 388.0, 322.0, 207.0, 204.0, 149.0, 117.0, 96.0, 72.0, 55.0, 53.0, 38.0, 32.0, 21.0, 23.0, 13.0, 14.0, 8.0, 2.0, 7.0, 4.0, 0.0, 0.0, 2.0], "bins": [-0.0009267729474231601, -0.0008986953180283308, -0.0008706176886335015, -0.0008425401174463332, -0.0008144624880515039, -0.0007863848586566746, -0.0007583072292618454, -0.0007302295998670161, -0.0007021520286798477, -0.0006740743992850184, -0.0006459967698901892, -0.0006179191404953599, -0.0005898415111005306, -0.0005617638817057014, -0.000533686310518533, -0.0005056086811237037, -0.00047753105172887444, -0.00044945342233404517, -0.00042137582204304636, -0.0003932981926482171, -0.00036522059235721827, -0.000337142962962389, -0.0003090653335675597, -0.0002809877332765609, -0.00025291010388173163, -0.00022483248903881758, -0.00019675487419590354, -0.00016867724480107427, -0.00014059962995816022, -0.00011252201511524618, -8.444439299637452e-05, -5.6366774515481666e-05, -2.8289214242249727e-05, -2.115957613568753e-07, 2.7866022719535977e-05, 5.594364120042883e-05, 8.402125968132168e-05, 0.00011209887452423573, 0.000140176503919065, 0.00016825411876197904, 0.0001963317336048931, 0.00022440934844780713, 0.0002524869632907212, 0.00028056459268555045, 0.0003086422220803797, 0.00033671982237137854, 0.0003647974517662078, 0.00039287505205720663, 0.0004209526814520359, 0.0004490303108468652, 0.000477107911137864, 0.0005051855114288628, 0.0005332631408236921, 0.0005613407702185214, 0.0005894183996133506, 0.0006174960290081799, 0.0006455736001953483, 0.0006736512295901775, 0.0007017288589850068, 0.0007298064883798361, 0.0007578841177746654, 0.0007859617471694946, 0.000814039318356663, 0.0008421169477514923, 0.0008701945771463215]}, "gradients/linearlayers.1.0.bias": {"_type": "histogram", "values": [1.0, 1.0, 1.0, 0.0, 1.0, 1.0, 0.0, 2.0, 3.0, 1.0, 1.0, 1.0, 3.0, 2.0, 7.0, 2.0, 2.0, 5.0, 3.0, 1.0, 2.0, 2.0, 2.0, 5.0, 3.0, 8.0, 2.0, 4.0, 5.0, 1.0, 1.0, 3.0, 95.0, 5.0, 3.0, 7.0, 1.0, 3.0, 5.0, 5.0, 4.0, 1.0, 4.0, 2.0, 2.0, 7.0, 3.0, 1.0, 4.0, 4.0, 4.0, 5.0, 1.0, 1.0, 2.0, 2.0, 0.0, 2.0, 1.0, 2.0, 0.0, 3.0, 0.0, 1.0], "bins": [-0.0005052809137851, -0.0004896502941846848, -0.00047401973279193044, -0.0004583891131915152, -0.00044275852269493043, -0.00042712793219834566, -0.00041149731259793043, -0.00039586672210134566, -0.0003802361316047609, -0.0003646055411081761, -0.00034897495061159134, -0.0003333443310111761, -0.00031771374051459134, -0.00030208315001800656, -0.00028645253041759133, -0.00027082193992100656, -0.0002551913494244218, -0.00023956075892783701, -0.000223930153879337, -0.000208299548830837, -0.00019266895833425224, -0.00017703836783766747, -0.00016140776278916746, -0.00014577715774066746, -0.0001301465672440827, -0.0001145159694715403, -9.888537169899791e-05, -8.325477392645553e-05, -6.762417615391314e-05, -5.199357838137075e-05, -3.6362980608828366e-05, -2.073238283628598e-05, -5.101843271404505e-06, 1.0528754501137882e-05, 2.615935227368027e-05, 4.178995004622266e-05, 5.7420547818765044e-05, 7.305114559130743e-05, 8.868174336384982e-05, 0.0001043123411363922, 0.00011994293890893459, 0.00013557352940551937, 0.00015120413445401937, 0.00016683473950251937, 0.00018246532999910414, 0.00019809592049568892, 0.00021372652554418892, 0.00022935713059268892, 0.0002449877210892737, 0.00026061831158585846, 0.00027624890208244324, 0.00029187952168285847, 0.00030751011217944324, 0.000323140702676028, 0.00033877132227644324, 0.000354401912773028, 0.0003700325032696128, 0.00038566309376619756, 0.00040129368426278234, 0.00041692430386319757, 0.00043255489435978234, 0.0004481854848563671, 0.00046381610445678234, 0.0004794466949533671, 0.0004950772854499519]}, "gradients/linearlayers.1.0.weight": {"_type": "histogram", "values": [1.0, 0.0, 2.0, 0.0, 1.0, 1.0, 1.0, 1.0, 5.0, 2.0, 5.0, 5.0, 7.0, 14.0, 20.0, 20.0, 34.0, 41.0, 61.0, 71.0, 106.0, 144.0, 192.0, 269.0, 350.0, 458.0, 609.0, 859.0, 1210.0, 1702.0, 2361.0, 3039.0, 42335.0, 3178.0, 2210.0, 1685.0, 1217.0, 863.0, 667.0, 429.0, 377.0, 263.0, 178.0, 143.0, 100.0, 87.0, 60.0, 38.0, 28.0, 22.0, 18.0, 14.0, 11.0, 4.0, 3.0, 5.0, 0.0, 3.0, 1.0, 2.0, 0.0, 3.0, 0.0, 1.0], "bins": [-0.0017165825702250004, -0.0016635431675240397, -0.0016105036484077573, -0.0015574642457067966, -0.001504424843005836, -0.0014513853238895535, -0.001398345921188593, -0.0013453065184876323, -0.0012922671157866716, -0.0012392275966703892, -0.0011861881939694285, -0.001133148791268468, -0.0010801092721521854, -0.0010270698694512248, -0.0009740304085426033, -0.0009209910058416426, -0.0008679515449330211, -0.0008149120840243995, -0.0007618726813234389, -0.0007088332204148173, -0.0006557938177138567, -0.0006027543568052351, -0.0005497148958966136, -0.000496675493195653, -0.0004436360322870314, -0.0003905966004822403, -0.0003375571686774492, -0.0002845177077688277, -0.00023147827596403658, -0.0001784388441592455, -0.00012539939780253917, -7.235995872179046e-05, -1.932040322571993e-05, 3.371903585502878e-05, 8.675847493577749e-05, 0.0001397979212924838, 0.0001928373530972749, 0.000245876784902066, 0.00029891624581068754, 0.00035195567761547863, 0.00040499510942026973, 0.0004580345412250608, 0.0005110739730298519, 0.0005641134339384735, 0.000617152894847095, 0.0006701922975480556, 0.0007232317584566772, 0.0007762711611576378, 0.0008293106220662594, 0.0008823500829748809, 0.0009353894856758416, 0.0009884289465844631, 0.0010414683492854238, 0.0010945078684017062, 0.0011475472711026669, 0.0012005866738036275, 0.0012536260765045881, 0.0013066655956208706, 0.0013597049983218312, 0.0014127444010227919, 0.0014657839201390743, 0.001518823322840035, 0.0015718627255409956, 0.001624902244657278, 0.0016779416473582387]}, "gradients/linearlayers.0.0.bias": {"_type": "histogram", "values": [1.0, 0.0, 1.0, 2.0, 0.0, 0.0, 0.0, 0.0, 0.0, 0.0, 3.0, 0.0, 3.0, 2.0, 5.0, 1.0, 2.0, 6.0, 2.0, 1.0, 3.0, 3.0, 2.0, 6.0, 4.0, 5.0, 3.0, 2.0, 1.0, 5.0, 7.0, 6.0, 4.0, 77.0, 3.0, 1.0, 3.0, 7.0, 10.0, 7.0, 10.0, 3.0, 3.0, 3.0, 3.0, 4.0, 5.0, 6.0, 3.0, 5.0, 1.0, 4.0, 3.0, 2.0, 4.0, 2.0, 0.0, 1.0, 1.0, 3.0, 0.0, 0.0, 1.0, 1.0], "bins": [-0.0007808957016095519, -0.0007575363852083683, -0.0007341770688071847, -0.0007108177524060011, -0.0006874584360048175, -0.000664099061395973, -0.0006407397449947894, -0.0006173804285936058, -0.0005940211121924222, -0.0005706617957912385, -0.0005473024793900549, -0.0005239431629888713, -0.0005005837883800268, -0.00047722450108267367, -0.0004538651555776596, -0.000430505839176476, -0.0004071465227752924, -0.0003837872063741088, -0.0003604278899729252, -0.0003370685444679111, -0.0003137092280667275, -0.0002903499116655439, -0.00026699056616052985, -0.00024363124975934625, -0.00022027193335816264, -0.00019691261695697904, -0.0001735532860038802, -0.00015019395505078137, -0.00012683463864959776, -0.00010347531497245654, -8.011599129531533e-05, -5.6756667618174106e-05, -3.339728573337197e-05, -1.0037962056230754e-05, 1.3321361620910466e-05, 3.6680685298051685e-05, 6.0040008975192904e-05, 8.339933265233412e-05, 0.00010675865632947534, 0.00013011798728257418, 0.00015347730368375778, 0.0001768366200849414, 0.00020019595103804022, 0.00022355528199113905, 0.00024691459839232266, 0.00027027391479350626, 0.0002936332602985203, 0.00031699257669970393, 0.00034035189310088754, 0.00036371120950207114, 0.00038707052590325475, 0.0004104298714082688, 0.0004337891878094524, 0.000457148504210636, 0.0004805078497156501, 0.0005038671661168337, 0.0005272264825180173, 0.0005505857989192009, 0.0005739451153203845, 0.0005973044317215681, 0.0006206637481227517, 0.0006440231227315962, 0.0006673824391327798, 0.0006907417555339634, 0.000714101071935147]}, "gradients/linearlayers.0.0.weight": {"_type": "histogram", "values": [1.0, 0.0, 2.0, 4.0, 2.0, 5.0, 4.0, 3.0, 1.0, 4.0, 7.0, 6.0, 19.0, 18.0, 28.0, 21.0, 35.0, 48.0, 68.0, 73.0, 97.0, 129.0, 184.0, 222.0, 299.0, 405.0, 548.0, 713.0, 917.0, 1215.0, 1521.0, 2066.0, 3706.0, 37709.0, 4170.0, 3094.0, 2020.0, 1517.0, 1152.0, 886.0, 656.0, 481.0, 372.0, 262.0, 213.0, 135.0, 137.0, 82.0, 63.0, 52.0, 36.0, 35.0, 27.0, 13.0, 13.0, 9.0, 12.0, 5.0, 1.0, 6.0, 4.0, 1.0, 1.0, 1.0], "bins": [-0.0019782024901360273, -0.001919038244523108, -0.0018598739989101887, -0.0018007096368819475, -0.0017415453912690282, -0.0016823811456561089, -0.0016232169000431895, -0.0015640526544302702, -0.001504888292402029, -0.0014457240467891097, -0.0013865598011761904, -0.001327395555563271, -0.0012682313099503517, -0.0012090670643374324, -0.0011499027023091912, -0.001090738456696272, -0.0010315742110833526, -0.0009724099654704332, -0.000913245661649853, -0.0008540814160369337, -0.0007949171122163534, -0.0007357528666034341, -0.0006765886209905148, -0.0006174243171699345, -0.0005582600715570152, -0.0004990958259440958, -0.0004399315221235156, -0.0003807672765105963, -0.0003216030017938465, -0.0002624387270770967, -0.00020327446691226214, -0.00014411020674742758, -8.494581561535597e-05, -2.5781548174563795e-05, 3.338271926622838e-05, 9.254698670702055e-05, 0.00015171125414781272, 0.0002108755288645625, 0.00027003977447748184, 0.00032920404919423163, 0.0003883683239109814, 0.0004475325986277312, 0.000506696873344481, 0.0005658611189574003, 0.0006250253645703197, 0.0006841896683908999, 0.0007433539140038192, 0.0008025182178243995, 0.0008616824634373188, 0.0009208467090502381, 0.0009800109546631575, 0.0010391753166913986, 0.001098339562304318, 0.0011575038079172373, 0.0012166680535301566, 0.001275832299143076, 0.001334996661171317, 0.0013941609067842364, 0.0014533251523971558, 0.001512489398010075, 0.0015716536436229944, 0.0016308178892359138, 0.001689982251264155, 0.0017491464968770742, 0.0018083107424899936]}, "gradients/embeds.2.bias": {"_type": "histogram", "values": [2.0, 0.0, 1.0, 0.0, 2.0, 2.0, 0.0, 2.0, 3.0, 2.0, 1.0, 2.0, 4.0, 3.0, 5.0, 1.0, 1.0, 9.0, 2.0, 4.0, 3.0, 1.0, 4.0, 7.0, 10.0, 7.0, 1.0, 2.0, 5.0, 6.0, 65.0, 4.0, 5.0, 0.0, 6.0, 4.0, 2.0, 5.0, 7.0, 8.0, 4.0, 7.0, 4.0, 6.0, 5.0, 2.0, 5.0, 7.0, 1.0, 5.0, 4.0, 3.0, 1.0, 0.0, 1.0, 1.0, 0.0, 0.0, 0.0, 0.0, 0.0, 0.0, 0.0, 2.0], "bins": [-0.0009316120413132012, -0.000901301798876375, -0.0008709915564395487, -0.0008406813722103834, -0.0008103711297735572, -0.000780060887336731, -0.0007497506448999047, -0.0007194404024630785, -0.0006891301600262523, -0.000658819975797087, -0.0006285097333602607, -0.0005981994909234345, -0.0005678892484866083, -0.000537579006049782, -0.0005072688218206167, -0.0004769585793837905, -0.00044664833694696426, -0.00041633809451013803, -0.00038602788117714226, -0.00035571763874031603, -0.00032540742540732026, -0.00029509718297049403, -0.0002647869405336678, -0.0002344767126487568, -0.0002041664847638458, -0.0001738562568789348, -0.0001435460289940238, -0.00011323578655719757, -8.292555867228657e-05, -5.261532714939676e-05, -2.2305095626506954e-05, 8.005135896382853e-06, 3.831530921161175e-05, 6.862553709652275e-05, 9.893577225739136e-05, 0.00012924600741825998, 0.00015955623530317098, 0.00018986646318808198, 0.0002201767056249082, 0.000250486918957904, 0.0002807971613947302, 0.00031110740383155644, 0.0003414176171645522, 0.00037172785960137844, 0.00040203810203820467, 0.00043234831537120044, 0.00046265855780802667, 0.0004929687711410224, 0.0005232790135778487, 0.0005535892560146749, 0.0005838994984515011, 0.0006142096826806664, 0.0006445199251174927, 0.0006748301675543189, 0.0007051404099911451, 0.0007354506524279714, 0.0007657608948647976, 0.0007960710790939629, 0.0008263813215307891, 0.0008566915639676154, 0.0008870018064044416, 0.0009173120488412678, 0.0009476222330704331, 0.0009779324755072594, 0.0010082427179440856]}, "gradients/embeds.2.weight": {"_type": "histogram", "values": [2.0, 2.0, 0.0, 1.0, 1.0, 3.0, 5.0, 6.0, 9.0, 12.0, 10.0, 15.0, 33.0, 36.0, 50.0, 74.0, 86.0, 150.0, 178.0, 227.0, 314.0, 432.0, 562.0, 821.0, 1048.0, 1463.0, 2078.0, 2987.0, 4422.0, 7506.0, 79414.0, 9995.0, 5744.0, 3969.0, 2737.0, 2010.0, 1368.0, 956.0, 697.0, 474.0, 356.0, 239.0, 172.0, 110.0, 82.0, 58.0, 43.0, 24.0, 23.0, 23.0, 14.0, 6.0, 4.0, 5.0, 8.0, 2.0, 2.0, 0.0, 0.0, 0.0, 0.0, 1.0, 1.0, 2.0], "bins": [-0.0021733632311224937, -0.0021025463938713074, -0.0020317297894507647, -0.0019609129521995783, -0.0018900962313637137, -0.0018192795105278492, -0.0017484626732766628, -0.0016776459524407983, -0.0016068292316049337, -0.0015360125107690692, -0.0014651957899332047, -0.0013943789526820183, -0.0013235622318461537, -0.0012527455110102892, -0.0011819286737591028, -0.0011111119529232383, -0.0010402952320873737, -0.0009694785112515092, -0.0008986617322079837, -0.0008278449531644583, -0.0007570282323285937, -0.0006862115114927292, -0.0006153947324492037, -0.0005445779534056783, -0.00047376123256981373, -0.00040294448263011873, -0.0003321277326904237, -0.0002613109827507287, -0.00019049423281103373, -0.00011967748287133873, -4.8860732931643724e-05, 2.1956017008051276e-05, 9.277253411710262e-05, 0.00016358928405679762, 0.00023440603399649262, 0.0003052227839361876, 0.0003760395338758826, 0.0004468562838155776, 0.0005176730337552726, 0.0005884898127987981, 0.0006593065336346626, 0.0007301232544705272, 0.0008009400335140526, 0.0008717568125575781, 0.0009425735333934426, 0.0010133902542293072, 0.0010842070914804935, 0.001155023812316358, 0.0012258405331522226, 0.0012966572539880872, 0.0013674739748239517, 0.001438290812075138, 0.0015091075329110026, 0.0015799242537468672, 0.0016507410909980536, 0.001721557811833918, 0.0017923745326697826, 0.0018631912535056472, 0.0019340079743415117, 0.002004824811592698, 0.002075641416013241, 0.002146458253264427, 0.0022172750905156136, 0.0022880916949361563, 0.0023589085321873426]}, "gradients/embeds.0.bias": {"_type": "histogram", "values": [1.0, 0.0, 0.0, 0.0, 0.0, 0.0, 1.0, 0.0, 0.0, 0.0, 0.0, 0.0, 2.0, 1.0, 1.0, 0.0, 5.0, 2.0, 1.0, 3.0, 6.0, 3.0, 6.0, 4.0, 4.0, 6.0, 7.0, 11.0, 14.0, 9.0, 14.0, 17.0, 17.0, 8.0, 8.0, 11.0, 16.0, 147.0, 13.0, 13.0, 17.0, 16.0, 13.0, 13.0, 8.0, 15.0, 8.0, 10.0, 14.0, 12.0, 4.0, 1.0, 8.0, 2.0, 3.0, 4.0, 3.0, 2.0, 3.0, 0.0, 3.0, 0.0, 1.0, 1.0], "bins": [-0.0012340855319052935, -0.0012010392965748906, -0.0011679930612444878, -0.001134946825914085, -0.001101900590583682, -0.0010688543552532792, -0.0010358081199228764, -0.0010027618845924735, -0.0009697155910544097, -0.0009366693557240069, -0.000903623120393604, -0.0008705768850632012, -0.0008375305915251374, -0.0008044843561947346, -0.0007714381208643317, -0.0007383918855339289, -0.000705345650203526, -0.0006722994148731232, -0.0006392531795427203, -0.0006062069442123175, -0.0005731607088819146, -0.0005401144153438509, -0.000507068180013448, -0.00047402194468304515, -0.0004409757093526423, -0.00040792947402223945, -0.0003748832386918366, -0.0003418369742576033, -0.00030879073892720044, -0.0002757445035967976, -0.0002426982537144795, -0.00020965200383216143, -0.0001766058849170804, -0.00014355964958667755, -0.00011051339970435947, -7.7467157097999e-05, -4.442091449163854e-05, -1.1374671885278076e-05, 2.167157072108239e-05, 5.4717813327442855e-05, 8.776405593380332e-05, 0.00012081029854016379, 0.00015385654114652425, 0.00018690279102884233, 0.00021994902635924518, 0.00025299526168964803, 0.00028604152612388134, 0.0003190877614542842, 0.00035213399678468704, 0.0003851802321150899, 0.00041822646744549274, 0.00045127273187972605, 0.0004843189672101289, 0.0005173652316443622, 0.0005504114669747651, 0.0005834577023051679, 0.0006165039376355708, 0.0006495501729659736, 0.0006825964082963765, 0.0007156426436267793, 0.0007486889371648431, 0.0007817351724952459, 0.0008147814078256488, 0.0008478276431560516, 0.0008808738784864545]}, "gradients/embeds.0.weight": {"_type": "histogram", "values": [1.0, 0.0, 0.0, 0.0, 0.0, 0.0, 1.0, 0.0, 0.0, 0.0, 1.0, 0.0, 2.0, 1.0, 1.0, 1.0, 5.0, 2.0, 1.0, 7.0, 5.0, 4.0, 12.0, 6.0, 7.0, 11.0, 18.0, 19.0, 28.0, 34.0, 45.0, 67.0, 120.0, 220.0, 752.0, 4534.0, 49646.0, 317906.0, 16800.0, 2046.0, 433.0, 136.0, 86.0, 52.0, 39.0, 41.0, 14.0, 13.0, 30.0, 14.0, 14.0, 4.0, 10.0, 5.0, 3.0, 7.0, 3.0, 1.0, 1.0, 2.0, 3.0, 0.0, 1.0, 1.0], "bins": [-0.014914153143763542, -0.014514225535094738, -0.01411429699510336, -0.013714369386434555, -0.013314441777765751, -0.012914514169096947, -0.012514585629105568, -0.012114658020436764, -0.01171473041176796, -0.01131480187177658, -0.010914874263107777, -0.010514946654438972, -0.010115019045770168, -0.00971509050577879, -0.009315162897109985, -0.008915235288441181, -0.008515307679772377, -0.008115379139780998, -0.007715451531112194, -0.007315523456782103, -0.006915595848113298, -0.006515667773783207, -0.006115740165114403, -0.005715812090784311, -0.00531588401645422, -0.004915956407785416, -0.004516028333455324, -0.00411610072478652, -0.0037161726504564285, -0.0033162448089569807, -0.002916316967457533, -0.002516389125958085, -0.0021164612844586372, -0.0017165334429591894, -0.0013166056014597416, -0.0009166776435449719, -0.0005167498020455241, -0.00011682193144224584, 0.00028310593916103244, 0.0006830338388681412, 0.001082961680367589, 0.0014828895218670368, 0.0018828173633664846, 0.0022827452048659325, 0.002682673279196024, 0.0030826011206954718, 0.0034825289621949196, 0.0038824568036943674, 0.004282384645193815, 0.004682312719523907, 0.005082240328192711, 0.005482168402522802, 0.0058820960111916065, 0.006282024085521698, 0.006681951694190502, 0.007081879768520594, 0.007481807842850685, 0.00788173545151949, 0.008281663060188293, 0.008681591600179672, 0.009081519208848476, 0.00948144681751728, 0.009881374426186085, 0.010281302966177464, 0.010681230574846268]}, "_wandb": {"runtime": 619}}